=== Run information ===

Scheme:       weka.classifiers.meta.AdaBoostM1 -P 100 -S 1 -I 10 -W weka.classifiers.trees.J48 -- -C 0.25 -M 2
Relation:     TRAIN_1-weka.filters.unsupervised.attribute.NumericToNominal-Rlast
Instances:    25560
Attributes:   12
              entropy
              gray level threshold
              no of black pixels
              no of interior contours
              no of exterior contours
              no vertical slope components
              no horizontal slope components
              no positive slope components
              no negative slope components
              slant
              height
              class
Test mode:    user supplied test set:  size unknown (reading incrementally)

=== Classifier model (full training set) ===

AdaBoostM1: Base classifiers and their weights: 

J48 pruned tree
------------------

entropy <= 0.177771
|   no vertical slope components <= 0.079511
|   |   entropy <= 0.106069
|   |   |   no of interior contours <= 5
|   |   |   |   gray level threshold <= 12: 0 (2538.0/3.0)
|   |   |   |   gray level threshold > 12
|   |   |   |   |   no vertical slope components <= 0.04024: 0 (35.0)
|   |   |   |   |   no vertical slope components > 0.04024: 1 (5.0)
|   |   |   no of interior contours > 5
|   |   |   |   no of interior contours <= 45
|   |   |   |   |   gray level threshold <= 10
|   |   |   |   |   |   slant <= 0.195684
|   |   |   |   |   |   |   no of interior contours <= 16
|   |   |   |   |   |   |   |   no vertical slope components <= 0.049455
|   |   |   |   |   |   |   |   |   no negative slope components <= 0.021445: 0 (1660.0/8.0)
|   |   |   |   |   |   |   |   |   no negative slope components > 0.021445
|   |   |   |   |   |   |   |   |   |   no of black pixels <= 1566: 0 (209.0/1.0)
|   |   |   |   |   |   |   |   |   |   no of black pixels > 1566
|   |   |   |   |   |   |   |   |   |   |   no horizontal slope components <= 0.027113: 0 (76.0/7.0)
|   |   |   |   |   |   |   |   |   |   |   no horizontal slope components > 0.027113
|   |   |   |   |   |   |   |   |   |   |   |   no negative slope components <= 0.032208
|   |   |   |   |   |   |   |   |   |   |   |   |   slant <= 0.099622
|   |   |   |   |   |   |   |   |   |   |   |   |   |   no of interior contours <= 8: 0 (3.0)
|   |   |   |   |   |   |   |   |   |   |   |   |   |   no of interior contours > 8: 1 (5.0)
|   |   |   |   |   |   |   |   |   |   |   |   |   slant > 0.099622: 0 (5.0)
|   |   |   |   |   |   |   |   |   |   |   |   no negative slope components > 0.032208: 1 (4.0)
|   |   |   |   |   |   |   |   no vertical slope components > 0.049455
|   |   |   |   |   |   |   |   |   gray level threshold <= 3
|   |   |   |   |   |   |   |   |   |   entropy <= 0.084245: 0 (78.0)
|   |   |   |   |   |   |   |   |   |   entropy > 0.084245
|   |   |   |   |   |   |   |   |   |   |   no of interior contours <= 13: 0 (5.0)
|   |   |   |   |   |   |   |   |   |   |   no of interior contours > 13: 1 (2.0)
|   |   |   |   |   |   |   |   |   gray level threshold > 3
|   |   |   |   |   |   |   |   |   |   no horizontal slope components <= 0.026883
|   |   |   |   |   |   |   |   |   |   |   gray level threshold <= 7
|   |   |   |   |   |   |   |   |   |   |   |   no vertical slope components <= 0.063493: 0 (5.0/1.0)
|   |   |   |   |   |   |   |   |   |   |   |   no vertical slope components > 0.063493: 1 (2.0)
|   |   |   |   |   |   |   |   |   |   |   gray level threshold > 7: 1 (4.0)
|   |   |   |   |   |   |   |   |   |   no horizontal slope components > 0.026883
|   |   |   |   |   |   |   |   |   |   |   no of black pixels <= 1846: 0 (42.0)
|   |   |   |   |   |   |   |   |   |   |   no of black pixels > 1846
|   |   |   |   |   |   |   |   |   |   |   |   no of black pixels <= 3552
|   |   |   |   |   |   |   |   |   |   |   |   |   gray level threshold <= 7
|   |   |   |   |   |   |   |   |   |   |   |   |   |   no positive slope components <= 0.017883: 1 (7.0)
|   |   |   |   |   |   |   |   |   |   |   |   |   |   no positive slope components > 0.017883: 0 (2.0)
|   |   |   |   |   |   |   |   |   |   |   |   |   gray level threshold > 7: 0 (2.0)
|   |   |   |   |   |   |   |   |   |   |   |   no of black pixels > 3552: 0 (8.0)
|   |   |   |   |   |   |   no of interior contours > 16
|   |   |   |   |   |   |   |   no negative slope components <= 0.014692
|   |   |   |   |   |   |   |   |   no vertical slope components <= 0.049539: 0 (337.0/7.0)
|   |   |   |   |   |   |   |   |   no vertical slope components > 0.049539
|   |   |   |   |   |   |   |   |   |   no horizontal slope components <= 0.027612
|   |   |   |   |   |   |   |   |   |   |   gray level threshold <= 3: 0 (2.0)
|   |   |   |   |   |   |   |   |   |   |   gray level threshold > 3: 1 (6.0)
|   |   |   |   |   |   |   |   |   |   no horizontal slope components > 0.027612
|   |   |   |   |   |   |   |   |   |   |   slant <= 0.01288
|   |   |   |   |   |   |   |   |   |   |   |   entropy <= 0.053226: 0 (6.0)
|   |   |   |   |   |   |   |   |   |   |   |   entropy > 0.053226: 1 (4.0/1.0)
|   |   |   |   |   |   |   |   |   |   |   slant > 0.01288: 0 (36.0)
|   |   |   |   |   |   |   |   no negative slope components > 0.014692
|   |   |   |   |   |   |   |   |   gray level threshold <= 1
|   |   |   |   |   |   |   |   |   |   slant <= 0.022949: 1 (3.0/1.0)
|   |   |   |   |   |   |   |   |   |   slant > 0.022949: 0 (41.0)
|   |   |   |   |   |   |   |   |   gray level threshold > 1
|   |   |   |   |   |   |   |   |   |   no positive slope components <= 0.020615
|   |   |   |   |   |   |   |   |   |   |   no vertical slope components <= 0.033211
|   |   |   |   |   |   |   |   |   |   |   |   no of interior contours <= 28
|   |   |   |   |   |   |   |   |   |   |   |   |   no negative slope components <= 0.02163
|   |   |   |   |   |   |   |   |   |   |   |   |   |   no positive slope components <= 0.013485: 0 (21.0)
|   |   |   |   |   |   |   |   |   |   |   |   |   |   no positive slope components > 0.013485
|   |   |   |   |   |   |   |   |   |   |   |   |   |   |   no vertical slope components <= 0.016345: 0 (4.0)
|   |   |   |   |   |   |   |   |   |   |   |   |   |   |   no vertical slope components > 0.016345: 1 (2.0)
|   |   |   |   |   |   |   |   |   |   |   |   |   no negative slope components > 0.02163
|   |   |   |   |   |   |   |   |   |   |   |   |   |   no of exterior contours <= 3: 0 (6.0)
|   |   |   |   |   |   |   |   |   |   |   |   |   |   no of exterior contours > 3
|   |   |   |   |   |   |   |   |   |   |   |   |   |   |   no horizontal slope components <= 0.035339
|   |   |   |   |   |   |   |   |   |   |   |   |   |   |   |   no of exterior contours <= 23: 1 (13.0/1.0)
|   |   |   |   |   |   |   |   |   |   |   |   |   |   |   |   no of exterior contours > 23: 0 (2.0)
|   |   |   |   |   |   |   |   |   |   |   |   |   |   |   no horizontal slope components > 0.035339: 0 (5.0)
|   |   |   |   |   |   |   |   |   |   |   |   no of interior contours > 28
|   |   |   |   |   |   |   |   |   |   |   |   |   slant <= 0.062186: 1 (8.0)
|   |   |   |   |   |   |   |   |   |   |   |   |   slant > 0.062186: 0 (4.0/1.0)
|   |   |   |   |   |   |   |   |   |   |   no vertical slope components > 0.033211
|   |   |   |   |   |   |   |   |   |   |   |   no of exterior contours <= 3: 1 (10.0)
|   |   |   |   |   |   |   |   |   |   |   |   no of exterior contours > 3
|   |   |   |   |   |   |   |   |   |   |   |   |   no of exterior contours <= 4: 0 (3.0)
|   |   |   |   |   |   |   |   |   |   |   |   |   no of exterior contours > 4: 1 (12.0/1.0)
|   |   |   |   |   |   |   |   |   |   no positive slope components > 0.020615
|   |   |   |   |   |   |   |   |   |   |   slant <= 0.042729: 1 (4.0)
|   |   |   |   |   |   |   |   |   |   |   slant > 0.042729
|   |   |   |   |   |   |   |   |   |   |   |   entropy <= 0.066808: 0 (38.0)
|   |   |   |   |   |   |   |   |   |   |   |   entropy > 0.066808
|   |   |   |   |   |   |   |   |   |   |   |   |   no of black pixels <= 2128: 0 (16.0/1.0)
|   |   |   |   |   |   |   |   |   |   |   |   |   no of black pixels > 2128
|   |   |   |   |   |   |   |   |   |   |   |   |   |   no negative slope components <= 0.023782: 0 (3.0)
|   |   |   |   |   |   |   |   |   |   |   |   |   |   no negative slope components > 0.023782: 1 (4.0)
|   |   |   |   |   |   slant > 0.195684
|   |   |   |   |   |   |   slant <= 0.238181
|   |   |   |   |   |   |   |   no of black pixels <= 3003: 0 (11.0)
|   |   |   |   |   |   |   |   no of black pixels > 3003: 1 (2.0)
|   |   |   |   |   |   |   slant > 0.238181: 1 (12.0)
|   |   |   |   |   gray level threshold > 10
|   |   |   |   |   |   gray level threshold <= 25
|   |   |   |   |   |   |   no vertical slope components <= 0.044006
|   |   |   |   |   |   |   |   no of interior contours <= 29
|   |   |   |   |   |   |   |   |   entropy <= 0.094253: 0 (77.0/4.0)
|   |   |   |   |   |   |   |   |   entropy > 0.094253
|   |   |   |   |   |   |   |   |   |   gray level threshold <= 23: 1 (4.0)
|   |   |   |   |   |   |   |   |   |   gray level threshold > 23: 0 (2.0)
|   |   |   |   |   |   |   |   no of interior contours > 29: 1 (7.0/1.0)
|   |   |   |   |   |   |   no vertical slope components > 0.044006
|   |   |   |   |   |   |   |   no of black pixels <= 621: 0 (4.0/1.0)
|   |   |   |   |   |   |   |   no of black pixels > 621
|   |   |   |   |   |   |   |   |   no horizontal slope components <= 0.054499: 1 (15.0)
|   |   |   |   |   |   |   |   |   no horizontal slope components > 0.054499
|   |   |   |   |   |   |   |   |   |   no vertical slope components <= 0.065194: 0 (2.0)
|   |   |   |   |   |   |   |   |   |   no vertical slope components > 0.065194: 1 (2.0)
|   |   |   |   |   |   gray level threshold > 25: 1 (18.0/1.0)
|   |   |   |   no of interior contours > 45
|   |   |   |   |   no negative slope components <= 0.148493: 0 (1132.0)
|   |   |   |   |   no negative slope components > 0.148493
|   |   |   |   |   |   no horizontal slope components <= 0.050457
|   |   |   |   |   |   |   height <= 161
|   |   |   |   |   |   |   |   entropy <= 0.065952: 0 (4.0)
|   |   |   |   |   |   |   |   entropy > 0.065952: 1 (3.0/1.0)
|   |   |   |   |   |   |   height > 161: 1 (4.0)
|   |   |   |   |   |   no horizontal slope components > 0.050457: 0 (103.0)
|   |   entropy > 0.106069
|   |   |   no negative slope components <= 0.01663
|   |   |   |   gray level threshold <= 8
|   |   |   |   |   no vertical slope components <= 0.028408
|   |   |   |   |   |   no horizontal slope components <= 0.02472: 0 (456.0/8.0)
|   |   |   |   |   |   no horizontal slope components > 0.02472
|   |   |   |   |   |   |   height <= 11
|   |   |   |   |   |   |   |   gray level threshold <= 2: 0 (4.0)
|   |   |   |   |   |   |   |   gray level threshold > 2: 1 (8.0/1.0)
|   |   |   |   |   |   |   height > 11: 0 (36.0/3.0)
|   |   |   |   |   no vertical slope components > 0.028408: 0 (167.0/32.0)
|   |   |   |   gray level threshold > 8
|   |   |   |   |   no vertical slope components <= 0.040737
|   |   |   |   |   |   entropy <= 0.137396
|   |   |   |   |   |   |   no positive slope components <= 0.031897: 0 (35.0/1.0)
|   |   |   |   |   |   |   no positive slope components > 0.031897: 1 (2.0)
|   |   |   |   |   |   entropy > 0.137396
|   |   |   |   |   |   |   no horizontal slope components <= 0.005252: 0 (5.0)
|   |   |   |   |   |   |   no horizontal slope components > 0.005252
|   |   |   |   |   |   |   |   no positive slope components <= 0.012553
|   |   |   |   |   |   |   |   |   no vertical slope components <= 0.025823: 0 (5.0)
|   |   |   |   |   |   |   |   |   no vertical slope components > 0.025823: 1 (4.0/1.0)
|   |   |   |   |   |   |   |   no positive slope components > 0.012553: 1 (12.0/1.0)
|   |   |   |   |   no vertical slope components > 0.040737: 1 (15.0/2.0)
|   |   |   no negative slope components > 0.01663
|   |   |   |   gray level threshold <= 39
|   |   |   |   |   gray level threshold <= 7
|   |   |   |   |   |   slant <= 0.199953
|   |   |   |   |   |   |   no of interior contours <= 12
|   |   |   |   |   |   |   |   no horizontal slope components <= 0.035148
|   |   |   |   |   |   |   |   |   no of interior contours <= 5: 0 (92.0/5.0)
|   |   |   |   |   |   |   |   |   no of interior contours > 5
|   |   |   |   |   |   |   |   |   |   no negative slope components <= 0.033776
|   |   |   |   |   |   |   |   |   |   |   slant <= 0.030445: 1 (4.0)
|   |   |   |   |   |   |   |   |   |   |   slant > 0.030445: 0 (73.0/3.0)
|   |   |   |   |   |   |   |   |   |   no negative slope components > 0.033776
|   |   |   |   |   |   |   |   |   |   |   no of exterior contours <= 4
|   |   |   |   |   |   |   |   |   |   |   |   no of interior contours <= 6: 1 (2.0)
|   |   |   |   |   |   |   |   |   |   |   |   no of interior contours > 6: 0 (7.0)
|   |   |   |   |   |   |   |   |   |   |   no of exterior contours > 4: 1 (6.0)
|   |   |   |   |   |   |   |   no horizontal slope components > 0.035148
|   |   |   |   |   |   |   |   |   no of exterior contours <= 3
|   |   |   |   |   |   |   |   |   |   no vertical slope components <= 0.025074: 0 (2.0)
|   |   |   |   |   |   |   |   |   |   no vertical slope components > 0.025074: 1 (10.0/1.0)
|   |   |   |   |   |   |   |   |   no of exterior contours > 3
|   |   |   |   |   |   |   |   |   |   gray level threshold <= 1
|   |   |   |   |   |   |   |   |   |   |   entropy <= 0.113764: 0 (3.0)
|   |   |   |   |   |   |   |   |   |   |   entropy > 0.113764: 1 (3.0)
|   |   |   |   |   |   |   |   |   |   gray level threshold > 1: 0 (10.0)
|   |   |   |   |   |   |   no of interior contours > 12
|   |   |   |   |   |   |   |   no of black pixels <= 970
|   |   |   |   |   |   |   |   |   no positive slope components <= 0.016176: 1 (7.0/1.0)
|   |   |   |   |   |   |   |   |   no positive slope components > 0.016176
|   |   |   |   |   |   |   |   |   |   no vertical slope components <= 0.043166: 0 (22.0)
|   |   |   |   |   |   |   |   |   |   no vertical slope components > 0.043166
|   |   |   |   |   |   |   |   |   |   |   no of black pixels <= 498: 0 (5.0)
|   |   |   |   |   |   |   |   |   |   |   no of black pixels > 498: 1 (3.0)
|   |   |   |   |   |   |   |   no of black pixels > 970
|   |   |   |   |   |   |   |   |   no of exterior contours <= 6
|   |   |   |   |   |   |   |   |   |   no of black pixels <= 4188
|   |   |   |   |   |   |   |   |   |   |   no negative slope components <= 0.028801
|   |   |   |   |   |   |   |   |   |   |   |   gray level threshold <= 2
|   |   |   |   |   |   |   |   |   |   |   |   |   no vertical slope components <= 0.050036: 0 (5.0)
|   |   |   |   |   |   |   |   |   |   |   |   |   no vertical slope components > 0.050036: 1 (2.0)
|   |   |   |   |   |   |   |   |   |   |   |   gray level threshold > 2: 1 (12.0/1.0)
|   |   |   |   |   |   |   |   |   |   |   no negative slope components > 0.028801: 1 (27.0)
|   |   |   |   |   |   |   |   |   |   no of black pixels > 4188: 0 (3.0)
|   |   |   |   |   |   |   |   |   no of exterior contours > 6
|   |   |   |   |   |   |   |   |   |   slant <= 0.04602: 1 (4.0)
|   |   |   |   |   |   |   |   |   |   slant > 0.04602: 0 (8.0)
|   |   |   |   |   |   slant > 0.199953: 1 (20.0/1.0)
|   |   |   |   |   gray level threshold > 7
|   |   |   |   |   |   no positive slope components <= 0.019647
|   |   |   |   |   |   |   no negative slope components <= 0.021947
|   |   |   |   |   |   |   |   no vertical slope components <= 0.011927: 0 (5.0/1.0)
|   |   |   |   |   |   |   |   no vertical slope components > 0.011927: 1 (16.0/1.0)
|   |   |   |   |   |   |   no negative slope components > 0.021947: 1 (52.0)
|   |   |   |   |   |   no positive slope components > 0.019647
|   |   |   |   |   |   |   slant <= 0.120466
|   |   |   |   |   |   |   |   height <= 70
|   |   |   |   |   |   |   |   |   gray level threshold <= 11
|   |   |   |   |   |   |   |   |   |   no negative slope components <= 0.02149
|   |   |   |   |   |   |   |   |   |   |   gray level threshold <= 8
|   |   |   |   |   |   |   |   |   |   |   |   no of black pixels <= 804: 0 (3.0)
|   |   |   |   |   |   |   |   |   |   |   |   no of black pixels > 804: 1 (2.0)
|   |   |   |   |   |   |   |   |   |   |   gray level threshold > 8: 1 (2.0)
|   |   |   |   |   |   |   |   |   |   no negative slope components > 0.02149: 0 (10.0)
|   |   |   |   |   |   |   |   |   gray level threshold > 11: 1 (3.0)
|   |   |   |   |   |   |   |   height > 70: 0 (10.0)
|   |   |   |   |   |   |   slant > 0.120466
|   |   |   |   |   |   |   |   no positive slope components <= 0.036517: 1 (14.0)
|   |   |   |   |   |   |   |   no positive slope components > 0.036517
|   |   |   |   |   |   |   |   |   no positive slope components <= 0.079172
|   |   |   |   |   |   |   |   |   |   height <= 24: 1 (3.0)
|   |   |   |   |   |   |   |   |   |   height > 24
|   |   |   |   |   |   |   |   |   |   |   height <= 133: 0 (10.0)
|   |   |   |   |   |   |   |   |   |   |   height > 133
|   |   |   |   |   |   |   |   |   |   |   |   entropy <= 0.156626: 1 (3.0)
|   |   |   |   |   |   |   |   |   |   |   |   entropy > 0.156626: 0 (3.0/1.0)
|   |   |   |   |   |   |   |   |   no positive slope components > 0.079172: 1 (4.0)
|   |   |   |   gray level threshold > 39
|   |   |   |   |   no horizontal slope components <= 0.03652
|   |   |   |   |   |   no positive slope components <= 0.045795: 0 (25.0)
|   |   |   |   |   |   no positive slope components > 0.045795: 1 (4.0)
|   |   |   |   |   no horizontal slope components > 0.03652: 0 (127.0)
|   no vertical slope components > 0.079511
|   |   gray level threshold <= 39
|   |   |   entropy <= 0.089327
|   |   |   |   gray level threshold <= 8
|   |   |   |   |   no of interior contours <= 14
|   |   |   |   |   |   gray level threshold <= 5: 0 (40.0)
|   |   |   |   |   |   gray level threshold > 5
|   |   |   |   |   |   |   no of exterior contours <= 7: 0 (7.0)
|   |   |   |   |   |   |   no of exterior contours > 7: 1 (4.0/1.0)
|   |   |   |   |   no of interior contours > 14
|   |   |   |   |   |   no of black pixels <= 2731
|   |   |   |   |   |   |   slant <= 0.052014
|   |   |   |   |   |   |   |   no positive slope components <= 0.006308: 0 (3.0)
|   |   |   |   |   |   |   |   no positive slope components > 0.006308: 1 (5.0)
|   |   |   |   |   |   |   slant > 0.052014: 0 (11.0)
|   |   |   |   |   |   no of black pixels > 2731: 1 (8.0)
|   |   |   |   gray level threshold > 8
|   |   |   |   |   gray level threshold <= 35
|   |   |   |   |   |   no of exterior contours <= 2
|   |   |   |   |   |   |   slant <= 0.068798: 0 (2.0)
|   |   |   |   |   |   |   slant > 0.068798: 1 (4.0)
|   |   |   |   |   |   no of exterior contours > 2: 1 (25.0)
|   |   |   |   |   gray level threshold > 35
|   |   |   |   |   |   no negative slope components <= 0.122816: 0 (16.0)
|   |   |   |   |   |   no negative slope components > 0.122816: 1 (4.0)
|   |   |   entropy > 0.089327
|   |   |   |   height <= 176
|   |   |   |   |   gray level threshold <= 6
|   |   |   |   |   |   entropy <= 0.151143
|   |   |   |   |   |   |   no of exterior contours <= 9
|   |   |   |   |   |   |   |   no positive slope components <= 0.055386: 1 (16.0/2.0)
|   |   |   |   |   |   |   |   no positive slope components > 0.055386: 0 (4.0)
|   |   |   |   |   |   |   no of exterior contours > 9: 0 (4.0)
|   |   |   |   |   |   entropy > 0.151143: 1 (17.0)
|   |   |   |   |   gray level threshold > 6: 1 (157.0/1.0)
|   |   |   |   height > 176
|   |   |   |   |   entropy <= 0.13603: 0 (7.0)
|   |   |   |   |   entropy > 0.13603: 1 (4.0)
|   |   gray level threshold > 39
|   |   |   no negative slope components <= 0.119934: 0 (338.0)
|   |   |   no negative slope components > 0.119934
|   |   |   |   entropy <= 0.141169
|   |   |   |   |   no negative slope components <= 0.14001
|   |   |   |   |   |   no of exterior contours <= 3029
|   |   |   |   |   |   |   no of interior contours <= 8197: 0 (68.0/1.0)
|   |   |   |   |   |   |   no of interior contours > 8197
|   |   |   |   |   |   |   |   height <= 129: 1 (6.0)
|   |   |   |   |   |   |   |   height > 129: 0 (9.0)
|   |   |   |   |   |   no of exterior contours > 3029: 1 (9.0/1.0)
|   |   |   |   |   no negative slope components > 0.14001
|   |   |   |   |   |   no positive slope components <= 0.055756: 1 (25.0)
|   |   |   |   |   |   no positive slope components > 0.055756
|   |   |   |   |   |   |   no negative slope components <= 0.151713: 0 (11.0)
|   |   |   |   |   |   |   no negative slope components > 0.151713: 1 (4.0)
|   |   |   |   entropy > 0.141169: 1 (31.0/1.0)
entropy > 0.177771
|   entropy <= 0.25406
|   |   no vertical slope components <= 0.023862
|   |   |   no negative slope components <= 0.02024
|   |   |   |   no of exterior contours <= 12
|   |   |   |   |   gray level threshold <= 8
|   |   |   |   |   |   gray level threshold <= 3: 0 (51.0/1.0)
|   |   |   |   |   |   gray level threshold > 3
|   |   |   |   |   |   |   no horizontal slope components <= 0.019623
|   |   |   |   |   |   |   |   no of exterior contours <= 1
|   |   |   |   |   |   |   |   |   slant <= 0.033241: 1 (2.0)
|   |   |   |   |   |   |   |   |   slant > 0.033241: 0 (4.0)
|   |   |   |   |   |   |   |   no of exterior contours > 1: 0 (21.0)
|   |   |   |   |   |   |   no horizontal slope components > 0.019623
|   |   |   |   |   |   |   |   no positive slope components <= 0.024215: 1 (4.0)
|   |   |   |   |   |   |   |   no positive slope components > 0.024215: 0 (3.0)
|   |   |   |   |   gray level threshold > 8
|   |   |   |   |   |   entropy <= 0.211242: 0 (6.0)
|   |   |   |   |   |   entropy > 0.211242
|   |   |   |   |   |   |   no of exterior contours <= 5: 1 (11.0)
|   |   |   |   |   |   |   no of exterior contours > 5: 0 (3.0/1.0)
|   |   |   |   no of exterior contours > 12: 1 (7.0/1.0)
|   |   |   no negative slope components > 0.02024
|   |   |   |   entropy <= 0.216025
|   |   |   |   |   no of interior contours <= 37
|   |   |   |   |   |   height <= 21
|   |   |   |   |   |   |   no of interior contours <= 10: 0 (4.0)
|   |   |   |   |   |   |   no of interior contours > 10: 1 (5.0/1.0)
|   |   |   |   |   |   height > 21: 1 (25.0)
|   |   |   |   |   no of interior contours > 37: 0 (4.0)
|   |   |   |   entropy > 0.216025: 1 (51.0)
|   |   no vertical slope components > 0.023862
|   |   |   gray level threshold <= 49
|   |   |   |   gray level threshold <= 8
|   |   |   |   |   no negative slope components <= 0.004467
|   |   |   |   |   |   entropy <= 0.194076: 0 (7.0)
|   |   |   |   |   |   entropy > 0.194076
|   |   |   |   |   |   |   no positive slope components <= 0.008189: 0 (2.0)
|   |   |   |   |   |   |   no positive slope components > 0.008189: 1 (11.0/1.0)
|   |   |   |   |   no negative slope components > 0.004467
|   |   |   |   |   |   no vertical slope components <= 0.06029
|   |   |   |   |   |   |   gray level threshold <= 1
|   |   |   |   |   |   |   |   no negative slope components <= 0.01931: 0 (6.0)
|   |   |   |   |   |   |   |   no negative slope components > 0.01931: 1 (8.0)
|   |   |   |   |   |   |   gray level threshold > 1: 1 (84.0/10.0)
|   |   |   |   |   |   no vertical slope components > 0.06029: 1 (68.0/1.0)
|   |   |   |   gray level threshold > 8
|   |   |   |   |   height <= 118: 1 (360.0)
|   |   |   |   |   height > 118
|   |   |   |   |   |   slant <= 0.147551
|   |   |   |   |   |   |   no of exterior contours <= 774: 1 (34.0/1.0)
|   |   |   |   |   |   |   no of exterior contours > 774: 0 (4.0)
|   |   |   |   |   |   slant > 0.147551: 1 (87.0)
|   |   |   gray level threshold > 49
|   |   |   |   no negative slope components <= 0.116557: 0 (23.0/2.0)
|   |   |   |   no negative slope components > 0.116557
|   |   |   |   |   no vertical slope components <= 0.077082
|   |   |   |   |   |   no negative slope components <= 0.157552: 0 (7.0)
|   |   |   |   |   |   no negative slope components > 0.157552: 1 (2.0)
|   |   |   |   |   no vertical slope components > 0.077082: 1 (36.0)
|   entropy > 0.25406
|   |   entropy <= 0.316699
|   |   |   no vertical slope components <= 0.006039
|   |   |   |   no negative slope components <= 0.014708
|   |   |   |   |   gray level threshold <= 7: 0 (5.0)
|   |   |   |   |   gray level threshold > 7
|   |   |   |   |   |   no horizontal slope components <= 0.017622: 0 (3.0/1.0)
|   |   |   |   |   |   no horizontal slope components > 0.017622: 1 (5.0)
|   |   |   |   no negative slope components > 0.014708: 1 (33.0)
|   |   |   no vertical slope components > 0.006039: 1 (877.0/5.0)
|   |   entropy > 0.316699: 1 (14794.0)

Number of Leaves  : 	180

Size of the tree : 	359


Weight: 5.22

J48 pruned tree
------------------

entropy <= 0.288423
|   no of black pixels <= 315
|   |   no of interior contours <= 31
|   |   |   entropy <= 0.198919
|   |   |   |   no vertical slope components <= 0.070608: 0 (1150.59/11.06)
|   |   |   |   no vertical slope components > 0.070608
|   |   |   |   |   gray level threshold <= 11
|   |   |   |   |   |   no vertical slope components <= 0.122909
|   |   |   |   |   |   |   slant <= 0.033512: 1 (2.01/0.5)
|   |   |   |   |   |   |   slant > 0.033512: 0 (13.07)
|   |   |   |   |   |   no vertical slope components > 0.122909: 1 (2.01)
|   |   |   |   |   gray level threshold > 11: 1 (8.55)
|   |   |   entropy > 0.198919
|   |   |   |   no vertical slope components <= 0.032685
|   |   |   |   |   no negative slope components <= 0.013544: 0 (5.53/1.01)
|   |   |   |   |   no negative slope components > 0.013544: 1 (7.04)
|   |   |   |   no vertical slope components > 0.032685: 1 (29.16)
|   |   no of interior contours > 31
|   |   |   entropy <= 0.152796: 0 (11.06/0.5)
|   |   |   entropy > 0.152796: 1 (95.8/1.01)
|   no of black pixels > 315
|   |   no of interior contours <= 45
|   |   |   slant <= 0.004948
|   |   |   |   gray level threshold <= 5: 0 (219.96/1.51)
|   |   |   |   gray level threshold > 5
|   |   |   |   |   no vertical slope components <= 0.04043: 0 (125.96/4.02)
|   |   |   |   |   no vertical slope components > 0.04043: 1 (19.61/2.01)
|   |   |   slant > 0.004948
|   |   |   |   entropy <= 0.044027
|   |   |   |   |   no positive slope components <= 0.017787: 0 (909.23/11.06)
|   |   |   |   |   no positive slope components > 0.017787
|   |   |   |   |   |   no of interior contours <= 10
|   |   |   |   |   |   |   slant <= 0.178582: 0 (259.89/1.51)
|   |   |   |   |   |   |   slant > 0.178582
|   |   |   |   |   |   |   |   no horizontal slope components <= 0.070089
|   |   |   |   |   |   |   |   |   no of interior contours <= 7: 0 (6.54)
|   |   |   |   |   |   |   |   |   no of interior contours > 7
|   |   |   |   |   |   |   |   |   |   no of black pixels <= 1872: 0 (2.01)
|   |   |   |   |   |   |   |   |   |   no of black pixels > 1872: 1 (2.51)
|   |   |   |   |   |   |   |   no horizontal slope components > 0.070089: 1 (3.02)
|   |   |   |   |   |   no of interior contours > 10
|   |   |   |   |   |   |   slant <= 0.069986
|   |   |   |   |   |   |   |   gray level threshold <= 2: 0 (25.64/2.01)
|   |   |   |   |   |   |   |   gray level threshold > 2
|   |   |   |   |   |   |   |   |   no vertical slope components <= 0.029429
|   |   |   |   |   |   |   |   |   |   no of interior contours <= 36: 0 (24.13)
|   |   |   |   |   |   |   |   |   |   no of interior contours > 36: 1 (94.79/0.5)
|   |   |   |   |   |   |   |   |   no vertical slope components > 0.029429: 1 (476.48/8.55)
|   |   |   |   |   |   |   slant > 0.069986: 0 (72.39/2.01)
|   |   |   |   entropy > 0.044027
|   |   |   |   |   entropy <= 0.180213
|   |   |   |   |   |   no vertical slope components <= 0.074092
|   |   |   |   |   |   |   no vertical slope components <= 0.001938
|   |   |   |   |   |   |   |   no positive slope components <= 0.001073: 1 (95.8/1.51)
|   |   |   |   |   |   |   |   no positive slope components > 0.001073
|   |   |   |   |   |   |   |   |   no of interior contours <= 18: 0 (162.66/1.01)
|   |   |   |   |   |   |   |   |   no of interior contours > 18
|   |   |   |   |   |   |   |   |   |   no horizontal slope components <= 0.022567
|   |   |   |   |   |   |   |   |   |   |   entropy <= 0.125553: 0 (4.52)
|   |   |   |   |   |   |   |   |   |   |   entropy > 0.125553: 1 (2.01/0.5)
|   |   |   |   |   |   |   |   |   |   no horizontal slope components > 0.022567: 1 (2.01)
|   |   |   |   |   |   |   no vertical slope components > 0.001938
|   |   |   |   |   |   |   |   no horizontal slope components <= 0.035281
|   |   |   |   |   |   |   |   |   entropy <= 0.109808
|   |   |   |   |   |   |   |   |   |   no horizontal slope components <= 0.004903: 0 (170.92/4.52)
|   |   |   |   |   |   |   |   |   |   no horizontal slope components > 0.004903
|   |   |   |   |   |   |   |   |   |   |   no of interior contours <= 4
|   |   |   |   |   |   |   |   |   |   |   |   no of exterior contours <= 33: 0 (261.9)
|   |   |   |   |   |   |   |   |   |   |   |   no of exterior contours > 33: 1 (93.28)
|   |   |   |   |   |   |   |   |   |   |   no of interior contours > 4
|   |   |   |   |   |   |   |   |   |   |   |   no negative slope components <= 0.007811
|   |   |   |   |   |   |   |   |   |   |   |   |   no negative slope components <= 0.000407
|   |   |   |   |   |   |   |   |   |   |   |   |   |   no negative slope components <= 0.000361: 0 (5.53)
|   |   |   |   |   |   |   |   |   |   |   |   |   |   no negative slope components > 0.000361: 1 (93.28)
|   |   |   |   |   |   |   |   |   |   |   |   |   no negative slope components > 0.000407: 0 (130.7/2.01)
|   |   |   |   |   |   |   |   |   |   |   |   no negative slope components > 0.007811
|   |   |   |   |   |   |   |   |   |   |   |   |   no of exterior contours <= 8
|   |   |   |   |   |   |   |   |   |   |   |   |   |   no of black pixels <= 828
|   |   |   |   |   |   |   |   |   |   |   |   |   |   |   no of interior contours <= 35: 0 (56.8/1.51)
|   |   |   |   |   |   |   |   |   |   |   |   |   |   |   no of interior contours > 35: 1 (93.28)
|   |   |   |   |   |   |   |   |   |   |   |   |   |   no of black pixels > 828
|   |   |   |   |   |   |   |   |   |   |   |   |   |   |   gray level threshold <= 7
|   |   |   |   |   |   |   |   |   |   |   |   |   |   |   |   no vertical slope components <= 0.034912
|   |   |   |   |   |   |   |   |   |   |   |   |   |   |   |   |   no of interior contours <= 11
|   |   |   |   |   |   |   |   |   |   |   |   |   |   |   |   |   |   no positive slope components <= 0.01659
|   |   |   |   |   |   |   |   |   |   |   |   |   |   |   |   |   |   |   no negative slope components <= 0.00791: 1 (93.79/0.5)
|   |   |   |   |   |   |   |   |   |   |   |   |   |   |   |   |   |   |   no negative slope components > 0.00791: 0 (25.64)
|   |   |   |   |   |   |   |   |   |   |   |   |   |   |   |   |   |   no positive slope components > 0.01659
|   |   |   |   |   |   |   |   |   |   |   |   |   |   |   |   |   |   |   no negative slope components <= 0.016869
|   |   |   |   |   |   |   |   |   |   |   |   |   |   |   |   |   |   |   |   gray level threshold <= 5: 0 (11.06)
|   |   |   |   |   |   |   |   |   |   |   |   |   |   |   |   |   |   |   |   gray level threshold > 5: 1 (94.79/1.51)
|   |   |   |   |   |   |   |   |   |   |   |   |   |   |   |   |   |   |   no negative slope components > 0.016869: 1 (951.45/17.09)
|   |   |   |   |   |   |   |   |   |   |   |   |   |   |   |   |   no of interior contours > 11
|   |   |   |   |   |   |   |   |   |   |   |   |   |   |   |   |   |   no vertical slope components <= 0.034278: 0 (43.23/5.03)
|   |   |   |   |   |   |   |   |   |   |   |   |   |   |   |   |   |   no vertical slope components > 0.034278: 1 (93.28)
|   |   |   |   |   |   |   |   |   |   |   |   |   |   |   |   no vertical slope components > 0.034912
|   |   |   |   |   |   |   |   |   |   |   |   |   |   |   |   |   no of interior contours <= 20: 0 (20.61/0.5)
|   |   |   |   |   |   |   |   |   |   |   |   |   |   |   |   |   no of interior contours > 20
|   |   |   |   |   |   |   |   |   |   |   |   |   |   |   |   |   |   slant <= 0.063579: 1 (3.52/0.5)
|   |   |   |   |   |   |   |   |   |   |   |   |   |   |   |   |   |   slant > 0.063579: 0 (3.52)
|   |   |   |   |   |   |   |   |   |   |   |   |   |   |   gray level threshold > 7: 1 (575.79/9.05)
|   |   |   |   |   |   |   |   |   |   |   |   |   no of exterior contours > 8
|   |   |   |   |   |   |   |   |   |   |   |   |   |   no of interior contours <= 22: 0 (47.76/4.02)
|   |   |   |   |   |   |   |   |   |   |   |   |   |   no of interior contours > 22
|   |   |   |   |   |   |   |   |   |   |   |   |   |   |   no positive slope components <= 0.054521
|   |   |   |   |   |   |   |   |   |   |   |   |   |   |   |   no horizontal slope components <= 0.023192: 0 (4.02/0.5)
|   |   |   |   |   |   |   |   |   |   |   |   |   |   |   |   no horizontal slope components > 0.023192: 1 (2.51/0.5)
|   |   |   |   |   |   |   |   |   |   |   |   |   |   |   no positive slope components > 0.054521: 1 (93.28)
|   |   |   |   |   |   |   |   |   entropy > 0.109808
|   |   |   |   |   |   |   |   |   |   no vertical slope components <= 0.028456
|   |   |   |   |   |   |   |   |   |   |   height <= 14: 0 (153.11/4.02)
|   |   |   |   |   |   |   |   |   |   |   height > 14
|   |   |   |   |   |   |   |   |   |   |   |   no of exterior contours <= 1: 0 (43.73/3.52)
|   |   |   |   |   |   |   |   |   |   |   |   no of exterior contours > 1
|   |   |   |   |   |   |   |   |   |   |   |   |   no horizontal slope components <= 0.005984
|   |   |   |   |   |   |   |   |   |   |   |   |   |   slant <= 0.006135: 1 (94.29/1.01)
|   |   |   |   |   |   |   |   |   |   |   |   |   |   slant > 0.006135
|   |   |   |   |   |   |   |   |   |   |   |   |   |   |   no negative slope components <= 0.030027: 0 (36.19/1.01)
|   |   |   |   |   |   |   |   |   |   |   |   |   |   |   no negative slope components > 0.030027: 1 (6.03)
|   |   |   |   |   |   |   |   |   |   |   |   |   no horizontal slope components > 0.005984
|   |   |   |   |   |   |   |   |   |   |   |   |   |   height <= 70
|   |   |   |   |   |   |   |   |   |   |   |   |   |   |   entropy <= 0.120571
|   |   |   |   |   |   |   |   |   |   |   |   |   |   |   |   no of interior contours <= 12: 0 (11.56)
|   |   |   |   |   |   |   |   |   |   |   |   |   |   |   |   no of interior contours > 12: 1 (98.31/3.02)
|   |   |   |   |   |   |   |   |   |   |   |   |   |   |   entropy > 0.120571
|   |   |   |   |   |   |   |   |   |   |   |   |   |   |   |   no negative slope components <= 0.004555
|   |   |   |   |   |   |   |   |   |   |   |   |   |   |   |   |   no of interior contours <= 3: 1 (93.79/0.5)
|   |   |   |   |   |   |   |   |   |   |   |   |   |   |   |   |   no of interior contours > 3: 0 (10.05)
|   |   |   |   |   |   |   |   |   |   |   |   |   |   |   |   no negative slope components > 0.004555
|   |   |   |   |   |   |   |   |   |   |   |   |   |   |   |   |   no of interior contours <= 11
|   |   |   |   |   |   |   |   |   |   |   |   |   |   |   |   |   |   no negative slope components <= 0.020042
|   |   |   |   |   |   |   |   |   |   |   |   |   |   |   |   |   |   |   gray level threshold <= 7: 0 (13.57)
|   |   |   |   |   |   |   |   |   |   |   |   |   |   |   |   |   |   |   gray level threshold > 7: 1 (93.28)
|   |   |   |   |   |   |   |   |   |   |   |   |   |   |   |   |   |   no negative slope components > 0.020042: 1 (286.39/3.52)
|   |   |   |   |   |   |   |   |   |   |   |   |   |   |   |   |   no of interior contours > 11: 1 (757.34/3.02)
|   |   |   |   |   |   |   |   |   |   |   |   |   |   height > 70
|   |   |   |   |   |   |   |   |   |   |   |   |   |   |   no of black pixels <= 2319: 0 (17.59/1.51)
|   |   |   |   |   |   |   |   |   |   |   |   |   |   |   no of black pixels > 2319
|   |   |   |   |   |   |   |   |   |   |   |   |   |   |   |   entropy <= 0.159252
|   |   |   |   |   |   |   |   |   |   |   |   |   |   |   |   |   no negative slope components <= 0.030978: 0 (4.52)
|   |   |   |   |   |   |   |   |   |   |   |   |   |   |   |   |   no negative slope components > 0.030978: 1 (3.02)
|   |   |   |   |   |   |   |   |   |   |   |   |   |   |   |   entropy > 0.159252: 1 (93.28)
|   |   |   |   |   |   |   |   |   |   no vertical slope components > 0.028456
|   |   |   |   |   |   |   |   |   |   |   no negative slope components <= 0.022918
|   |   |   |   |   |   |   |   |   |   |   |   height <= 12
|   |   |   |   |   |   |   |   |   |   |   |   |   entropy <= 0.139733: 1 (377.16/3.02)
|   |   |   |   |   |   |   |   |   |   |   |   |   entropy > 0.139733: 0 (7.04/1.51)
|   |   |   |   |   |   |   |   |   |   |   |   height > 12: 1 (2267.99/21.62)
|   |   |   |   |   |   |   |   |   |   |   no negative slope components > 0.022918
|   |   |   |   |   |   |   |   |   |   |   |   gray level threshold <= 8
|   |   |   |   |   |   |   |   |   |   |   |   |   no of interior contours <= 15: 0 (16.09/3.02)
|   |   |   |   |   |   |   |   |   |   |   |   |   no of interior contours > 15: 1 (7.04/0.5)
|   |   |   |   |   |   |   |   |   |   |   |   gray level threshold > 8: 1 (103.84/0.5)
|   |   |   |   |   |   |   |   no horizontal slope components > 0.035281
|   |   |   |   |   |   |   |   |   slant <= 0.133694
|   |   |   |   |   |   |   |   |   |   slant <= 0.025396
|   |   |   |   |   |   |   |   |   |   |   no vertical slope components <= 0.067622: 0 (405.81/3.02)
|   |   |   |   |   |   |   |   |   |   |   no vertical slope components > 0.067622: 1 (189.08)
|   |   |   |   |   |   |   |   |   |   slant > 0.025396
|   |   |   |   |   |   |   |   |   |   |   entropy <= 0.075351
|   |   |   |   |   |   |   |   |   |   |   |   gray level threshold <= 16: 0 (46.25/4.02)
|   |   |   |   |   |   |   |   |   |   |   |   gray level threshold > 16: 1 (2.51)
|   |   |   |   |   |   |   |   |   |   |   entropy > 0.075351
|   |   |   |   |   |   |   |   |   |   |   |   no of black pixels <= 964
|   |   |   |   |   |   |   |   |   |   |   |   |   no of exterior contours <= 5: 1 (668.07/11.06)
|   |   |   |   |   |   |   |   |   |   |   |   |   no of exterior contours > 5
|   |   |   |   |   |   |   |   |   |   |   |   |   |   no vertical slope components <= 0.017511: 1 (94.79)
|   |   |   |   |   |   |   |   |   |   |   |   |   |   no vertical slope components > 0.017511
|   |   |   |   |   |   |   |   |   |   |   |   |   |   |   gray level threshold <= 10: 0 (6.54)
|   |   |   |   |   |   |   |   |   |   |   |   |   |   |   gray level threshold > 10: 1 (2.01/0.5)
|   |   |   |   |   |   |   |   |   |   |   |   no of black pixels > 964
|   |   |   |   |   |   |   |   |   |   |   |   |   no negative slope components <= 0.013586
|   |   |   |   |   |   |   |   |   |   |   |   |   |   gray level threshold <= 9: 0 (18.6/0.5)
|   |   |   |   |   |   |   |   |   |   |   |   |   |   gray level threshold > 9: 1 (2.51)
|   |   |   |   |   |   |   |   |   |   |   |   |   no negative slope components > 0.013586
|   |   |   |   |   |   |   |   |   |   |   |   |   |   gray level threshold <= 4
|   |   |   |   |   |   |   |   |   |   |   |   |   |   |   no negative slope components <= 0.017104: 0 (4.02)
|   |   |   |   |   |   |   |   |   |   |   |   |   |   |   no negative slope components > 0.017104
|   |   |   |   |   |   |   |   |   |   |   |   |   |   |   |   entropy <= 0.120363
|   |   |   |   |   |   |   |   |   |   |   |   |   |   |   |   |   slant <= 0.065727: 1 (2.01/0.5)
|   |   |   |   |   |   |   |   |   |   |   |   |   |   |   |   |   slant > 0.065727: 0 (3.02)
|   |   |   |   |   |   |   |   |   |   |   |   |   |   |   |   entropy > 0.120363: 1 (6.54)
|   |   |   |   |   |   |   |   |   |   |   |   |   |   gray level threshold > 4: 1 (120.43/2.51)
|   |   |   |   |   |   |   |   |   slant > 0.133694
|   |   |   |   |   |   |   |   |   |   height <= 65
|   |   |   |   |   |   |   |   |   |   |   gray level threshold <= 5: 0 (9.05/1.01)
|   |   |   |   |   |   |   |   |   |   |   gray level threshold > 5: 1 (3.02)
|   |   |   |   |   |   |   |   |   |   height > 65: 0 (190.59/0.5)
|   |   |   |   |   |   no vertical slope components > 0.074092
|   |   |   |   |   |   |   entropy <= 0.148241
|   |   |   |   |   |   |   |   gray level threshold <= 8
|   |   |   |   |   |   |   |   |   height <= 95
|   |   |   |   |   |   |   |   |   |   no of black pixels <= 2136
|   |   |   |   |   |   |   |   |   |   |   no vertical slope components <= 0.095687: 0 (102.33/0.5)
|   |   |   |   |   |   |   |   |   |   |   no vertical slope components > 0.095687
|   |   |   |   |   |   |   |   |   |   |   |   no of black pixels <= 792: 1 (2.51)
|   |   |   |   |   |   |   |   |   |   |   |   no of black pixels > 792: 0 (3.02/0.5)
|   |   |   |   |   |   |   |   |   |   no of black pixels > 2136
|   |   |   |   |   |   |   |   |   |   |   no of exterior contours <= 9: 1 (7.04/0.5)
|   |   |   |   |   |   |   |   |   |   |   no of exterior contours > 9: 0 (2.51/0.5)
|   |   |   |   |   |   |   |   |   height > 95: 0 (289.41/1.51)
|   |   |   |   |   |   |   |   gray level threshold > 8: 1 (38.2/0.5)
|   |   |   |   |   |   |   entropy > 0.148241: 1 (131.99/1.01)
|   |   |   |   |   entropy > 0.180213
|   |   |   |   |   |   gray level threshold <= 10
|   |   |   |   |   |   |   height <= 89
|   |   |   |   |   |   |   |   no vertical slope components <= 0.011866
|   |   |   |   |   |   |   |   |   no negative slope components <= 0.015928: 0 (19.1/2.51)
|   |   |   |   |   |   |   |   |   no negative slope components > 0.015928: 1 (106.86/1.51)
|   |   |   |   |   |   |   |   no vertical slope components > 0.011866
|   |   |   |   |   |   |   |   |   no vertical slope components <= 0.086238
|   |   |   |   |   |   |   |   |   |   no of interior contours <= 19
|   |   |   |   |   |   |   |   |   |   |   no vertical slope components <= 0.056597
|   |   |   |   |   |   |   |   |   |   |   |   entropy <= 0.188023: 0 (566.75/4.02)
|   |   |   |   |   |   |   |   |   |   |   |   entropy > 0.188023
|   |   |   |   |   |   |   |   |   |   |   |   |   no negative slope components <= 0.021188
|   |   |   |   |   |   |   |   |   |   |   |   |   |   no of black pixels <= 1149: 0 (476.48/2.51)
|   |   |   |   |   |   |   |   |   |   |   |   |   |   no of black pixels > 1149
|   |   |   |   |   |   |   |   |   |   |   |   |   |   |   no negative slope components <= 0.018273
|   |   |   |   |   |   |   |   |   |   |   |   |   |   |   |   no vertical slope components <= 0.022115: 0 (4.02/0.5)
|   |   |   |   |   |   |   |   |   |   |   |   |   |   |   |   no vertical slope components > 0.022115: 1 (7.54)
|   |   |   |   |   |   |   |   |   |   |   |   |   |   |   no negative slope components > 0.018273: 0 (94.79/0.5)
|   |   |   |   |   |   |   |   |   |   |   |   |   no negative slope components > 0.021188
|   |   |   |   |   |   |   |   |   |   |   |   |   |   height <= 87: 1 (19.61/0.5)
|   |   |   |   |   |   |   |   |   |   |   |   |   |   height > 87: 0 (93.28)
|   |   |   |   |   |   |   |   |   |   |   no vertical slope components > 0.056597
|   |   |   |   |   |   |   |   |   |   |   |   no vertical slope components <= 0.084408: 1 (15.08)
|   |   |   |   |   |   |   |   |   |   |   |   no vertical slope components > 0.084408: 0 (93.28)
|   |   |   |   |   |   |   |   |   |   no of interior contours > 19: 1 (27.15/2.51)
|   |   |   |   |   |   |   |   |   no vertical slope components > 0.086238: 1 (28.65)
|   |   |   |   |   |   |   height > 89: 1 (173.72/1.51)
|   |   |   |   |   |   gray level threshold > 10: 1 (340.11/2.01)
|   |   no of interior contours > 45
|   |   |   no vertical slope components <= 0.086209
|   |   |   |   no negative slope components <= 0.134064: 0 (892.14/3.52)
|   |   |   |   no negative slope components > 0.134064
|   |   |   |   |   entropy <= 0.174478
|   |   |   |   |   |   no vertical slope components <= 0.049757: 0 (238.06)
|   |   |   |   |   |   no vertical slope components > 0.049757
|   |   |   |   |   |   |   gray level threshold <= 54
|   |   |   |   |   |   |   |   entropy <= 0.069293: 0 (9.05/0.5)
|   |   |   |   |   |   |   |   entropy > 0.069293: 1 (9.55/2.01)
|   |   |   |   |   |   |   gray level threshold > 54: 0 (8.55)
|   |   |   |   |   entropy > 0.174478
|   |   |   |   |   |   gray level threshold <= 44: 1 (23.63)
|   |   |   |   |   |   gray level threshold > 44
|   |   |   |   |   |   |   no horizontal slope components <= 0.039994: 1 (4.02)
|   |   |   |   |   |   |   no horizontal slope components > 0.039994: 0 (3.52)
|   |   |   no vertical slope components > 0.086209
|   |   |   |   entropy <= 0.164257
|   |   |   |   |   no negative slope components <= 0.119883: 0 (144.27)
|   |   |   |   |   no negative slope components > 0.119883
|   |   |   |   |   |   no of interior contours <= 5462: 0 (107.86/1.51)
|   |   |   |   |   |   no of interior contours > 5462
|   |   |   |   |   |   |   no of interior contours <= 5651: 1 (97.31)
|   |   |   |   |   |   |   no of interior contours > 5651
|   |   |   |   |   |   |   |   no of interior contours <= 6790
|   |   |   |   |   |   |   |   |   no of exterior contours <= 2997: 0 (15.58)
|   |   |   |   |   |   |   |   |   no of exterior contours > 2997: 1 (6.03)
|   |   |   |   |   |   |   |   no of interior contours > 6790
|   |   |   |   |   |   |   |   |   no negative slope components <= 0.136686
|   |   |   |   |   |   |   |   |   |   no vertical slope components <= 0.106982: 0 (97.81/0.5)
|   |   |   |   |   |   |   |   |   |   no vertical slope components > 0.106982: 1 (10.56/1.01)
|   |   |   |   |   |   |   |   |   no negative slope components > 0.136686: 1 (25.64)
|   |   |   |   entropy > 0.164257
|   |   |   |   |   height <= 142: 1 (257.95/3.02)
|   |   |   |   |   height > 142
|   |   |   |   |   |   no negative slope components <= 0.111976: 0 (102.84/1.01)
|   |   |   |   |   |   no negative slope components > 0.111976: 1 (31.67)
entropy > 0.288423: 1 (7656.54/1.51)

Number of Leaves  : 	136

Size of the tree : 	271


Weight: 4.79

J48 pruned tree
------------------

entropy <= 0.316699
|   no positive slope components <= 0.100553
|   |   no of black pixels <= 69180
|   |   |   no of interior contours <= 13
|   |   |   |   no of exterior contours <= 31
|   |   |   |   |   gray level threshold <= 12
|   |   |   |   |   |   no positive slope components <= 0.000951: 0 (284.96/1.52)
|   |   |   |   |   |   no positive slope components > 0.000951
|   |   |   |   |   |   |   entropy <= 0.126877
|   |   |   |   |   |   |   |   no of interior contours <= 2: 0 (631.71/0.76)
|   |   |   |   |   |   |   |   no of interior contours > 2
|   |   |   |   |   |   |   |   |   height <= 66
|   |   |   |   |   |   |   |   |   |   height <= 57
|   |   |   |   |   |   |   |   |   |   |   no of black pixels <= 732: 0 (489.99/0.51)
|   |   |   |   |   |   |   |   |   |   |   no of black pixels > 732
|   |   |   |   |   |   |   |   |   |   |   |   no vertical slope components <= 0.041965
|   |   |   |   |   |   |   |   |   |   |   |   |   no horizontal slope components <= 0.035915
|   |   |   |   |   |   |   |   |   |   |   |   |   |   no of black pixels <= 880
|   |   |   |   |   |   |   |   |   |   |   |   |   |   |   gray level threshold <= 1
|   |   |   |   |   |   |   |   |   |   |   |   |   |   |   |   height <= 31
|   |   |   |   |   |   |   |   |   |   |   |   |   |   |   |   |   no of black pixels <= 877: 0 (6.84)
|   |   |   |   |   |   |   |   |   |   |   |   |   |   |   |   |   no of black pixels > 877: 1 (47.28/0.25)
|   |   |   |   |   |   |   |   |   |   |   |   |   |   |   |   height > 31: 1 (142.86/1.77)
|   |   |   |   |   |   |   |   |   |   |   |   |   |   |   gray level threshold > 1
|   |   |   |   |   |   |   |   |   |   |   |   |   |   |   |   entropy <= 0.119173: 0 (53.64)
|   |   |   |   |   |   |   |   |   |   |   |   |   |   |   |   entropy > 0.119173: 1 (30.83/0.25)
|   |   |   |   |   |   |   |   |   |   |   |   |   |   no of black pixels > 880
|   |   |   |   |   |   |   |   |   |   |   |   |   |   |   no negative slope components <= 0.01078: 0 (346.56)
|   |   |   |   |   |   |   |   |   |   |   |   |   |   |   no negative slope components > 0.01078
|   |   |   |   |   |   |   |   |   |   |   |   |   |   |   |   slant <= 0.018911: 1 (174.45/2.79)
|   |   |   |   |   |   |   |   |   |   |   |   |   |   |   |   slant > 0.018911
|   |   |   |   |   |   |   |   |   |   |   |   |   |   |   |   |   slant <= 0.13586
|   |   |   |   |   |   |   |   |   |   |   |   |   |   |   |   |   |   no vertical slope components <= 0.00338
|   |   |   |   |   |   |   |   |   |   |   |   |   |   |   |   |   |   |   no vertical slope components <= 0.003014: 0 (70.02)
|   |   |   |   |   |   |   |   |   |   |   |   |   |   |   |   |   |   |   no vertical slope components > 0.003014: 1 (143.87/2.79)
|   |   |   |   |   |   |   |   |   |   |   |   |   |   |   |   |   |   no vertical slope components > 0.00338
|   |   |   |   |   |   |   |   |   |   |   |   |   |   |   |   |   |   |   no horizontal slope components <= 0.016722: 0 (673.83)
|   |   |   |   |   |   |   |   |   |   |   |   |   |   |   |   |   |   |   no horizontal slope components > 0.016722
|   |   |   |   |   |   |   |   |   |   |   |   |   |   |   |   |   |   |   |   no horizontal slope components <= 0.016856: 1 (94.06)
|   |   |   |   |   |   |   |   |   |   |   |   |   |   |   |   |   |   |   |   no horizontal slope components > 0.016856
|   |   |   |   |   |   |   |   |   |   |   |   |   |   |   |   |   |   |   |   |   no of black pixels <= 2484: 0 (449.83/0.25)
|   |   |   |   |   |   |   |   |   |   |   |   |   |   |   |   |   |   |   |   |   no of black pixels > 2484
|   |   |   |   |   |   |   |   |   |   |   |   |   |   |   |   |   |   |   |   |   |   no of black pixels <= 2769: 1 (139.77/31.59)
|   |   |   |   |   |   |   |   |   |   |   |   |   |   |   |   |   |   |   |   |   |   no of black pixels > 2769: 0 (63.94)
|   |   |   |   |   |   |   |   |   |   |   |   |   |   |   |   |   slant > 0.13586
|   |   |   |   |   |   |   |   |   |   |   |   |   |   |   |   |   |   no of exterior contours <= 3: 1 (188.57/32.6)
|   |   |   |   |   |   |   |   |   |   |   |   |   |   |   |   |   |   no of exterior contours > 3: 0 (34.38/0.25)
|   |   |   |   |   |   |   |   |   |   |   |   |   no horizontal slope components > 0.035915: 0 (304.55/0.51)
|   |   |   |   |   |   |   |   |   |   |   |   no vertical slope components > 0.041965
|   |   |   |   |   |   |   |   |   |   |   |   |   slant <= 0.063063
|   |   |   |   |   |   |   |   |   |   |   |   |   |   no positive slope components <= 0.006287: 0 (34.38/0.25)
|   |   |   |   |   |   |   |   |   |   |   |   |   |   no positive slope components > 0.006287
|   |   |   |   |   |   |   |   |   |   |   |   |   |   |   gray level threshold <= 3
|   |   |   |   |   |   |   |   |   |   |   |   |   |   |   |   height <= 53: 0 (7.6/0.25)
|   |   |   |   |   |   |   |   |   |   |   |   |   |   |   |   height > 53: 1 (47.03)
|   |   |   |   |   |   |   |   |   |   |   |   |   |   |   gray level threshold > 3: 1 (267.44/3.8)
|   |   |   |   |   |   |   |   |   |   |   |   |   slant > 0.063063
|   |   |   |   |   |   |   |   |   |   |   |   |   |   no negative slope components <= 0.007106: 1 (48.55/1.52)
|   |   |   |   |   |   |   |   |   |   |   |   |   |   no negative slope components > 0.007106
|   |   |   |   |   |   |   |   |   |   |   |   |   |   |   no vertical slope components <= 0.09532: 0 (169.6/0.51)
|   |   |   |   |   |   |   |   |   |   |   |   |   |   |   no vertical slope components > 0.09532: 1 (30.83)
|   |   |   |   |   |   |   |   |   |   height > 57
|   |   |   |   |   |   |   |   |   |   |   no of exterior contours <= 0: 0 (66.47)
|   |   |   |   |   |   |   |   |   |   |   no of exterior contours > 0
|   |   |   |   |   |   |   |   |   |   |   |   no horizontal slope components <= 0.013115: 0 (23.57)
|   |   |   |   |   |   |   |   |   |   |   |   no horizontal slope components > 0.013115
|   |   |   |   |   |   |   |   |   |   |   |   |   entropy <= 0.052206
|   |   |   |   |   |   |   |   |   |   |   |   |   |   no of black pixels <= 2550: 0 (12.16/0.25)
|   |   |   |   |   |   |   |   |   |   |   |   |   |   no of black pixels > 2550: 1 (32.35/1.52)
|   |   |   |   |   |   |   |   |   |   |   |   |   entropy > 0.052206
|   |   |   |   |   |   |   |   |   |   |   |   |   |   no negative slope components <= 0.017762
|   |   |   |   |   |   |   |   |   |   |   |   |   |   |   no vertical slope components <= 0.056704: 0 (5.83)
|   |   |   |   |   |   |   |   |   |   |   |   |   |   |   no vertical slope components > 0.056704: 1 (61.91/0.51)
|   |   |   |   |   |   |   |   |   |   |   |   |   |   no negative slope components > 0.017762: 1 (172.93/0.76)
|   |   |   |   |   |   |   |   |   height > 66
|   |   |   |   |   |   |   |   |   |   no vertical slope components <= 0.112192: 0 (791.91/2.03)
|   |   |   |   |   |   |   |   |   |   no vertical slope components > 0.112192: 1 (33.87/0.51)
|   |   |   |   |   |   |   entropy > 0.126877
|   |   |   |   |   |   |   |   no vertical slope components <= 0.056208
|   |   |   |   |   |   |   |   |   no of interior contours <= 1
|   |   |   |   |   |   |   |   |   |   slant <= 0.078316: 0 (302.01/0.25)
|   |   |   |   |   |   |   |   |   |   slant > 0.078316
|   |   |   |   |   |   |   |   |   |   |   height <= 38: 0 (32.86)
|   |   |   |   |   |   |   |   |   |   |   height > 38: 1 (50.83/0.25)
|   |   |   |   |   |   |   |   |   no of interior contours > 1
|   |   |   |   |   |   |   |   |   |   gray level threshold <= 7
|   |   |   |   |   |   |   |   |   |   |   height <= 7
|   |   |   |   |   |   |   |   |   |   |   |   no positive slope components <= 0.003301
|   |   |   |   |   |   |   |   |   |   |   |   |   entropy <= 0.209108: 0 (2.28)
|   |   |   |   |   |   |   |   |   |   |   |   |   entropy > 0.209108: 1 (30.57)
|   |   |   |   |   |   |   |   |   |   |   |   no positive slope components > 0.003301: 0 (213.89/1.01)
|   |   |   |   |   |   |   |   |   |   |   height > 7
|   |   |   |   |   |   |   |   |   |   |   |   no of exterior contours <= 3
|   |   |   |   |   |   |   |   |   |   |   |   |   height <= 83
|   |   |   |   |   |   |   |   |   |   |   |   |   |   no of black pixels <= 4473
|   |   |   |   |   |   |   |   |   |   |   |   |   |   |   entropy <= 0.172537
|   |   |   |   |   |   |   |   |   |   |   |   |   |   |   |   no of black pixels <= 699: 0 (133.19)
|   |   |   |   |   |   |   |   |   |   |   |   |   |   |   |   no of black pixels > 699
|   |   |   |   |   |   |   |   |   |   |   |   |   |   |   |   |   height <= 69
|   |   |   |   |   |   |   |   |   |   |   |   |   |   |   |   |   |   no horizontal slope components <= 0.007707: 0 (36.91)
|   |   |   |   |   |   |   |   |   |   |   |   |   |   |   |   |   |   no horizontal slope components > 0.007707
|   |   |   |   |   |   |   |   |   |   |   |   |   |   |   |   |   |   |   no horizontal slope components <= 0.050207: 1 (742.29/68.5)
|   |   |   |   |   |   |   |   |   |   |   |   |   |   |   |   |   |   |   no horizontal slope components > 0.050207: 0 (30.57)
|   |   |   |   |   |   |   |   |   |   |   |   |   |   |   |   |   height > 69: 0 (78.11)
|   |   |   |   |   |   |   |   |   |   |   |   |   |   |   entropy > 0.172537
|   |   |   |   |   |   |   |   |   |   |   |   |   |   |   |   gray level threshold <= 3
|   |   |   |   |   |   |   |   |   |   |   |   |   |   |   |   |   slant <= 0.050896
|   |   |   |   |   |   |   |   |   |   |   |   |   |   |   |   |   |   no negative slope components <= 0.015692: 0 (4.05/0.25)
|   |   |   |   |   |   |   |   |   |   |   |   |   |   |   |   |   |   no negative slope components > 0.015692: 1 (47.28)
|   |   |   |   |   |   |   |   |   |   |   |   |   |   |   |   |   slant > 0.050896: 1 (49.82/0.76)
|   |   |   |   |   |   |   |   |   |   |   |   |   |   |   |   gray level threshold > 3: 1 (298.21/1.77)
|   |   |   |   |   |   |   |   |   |   |   |   |   |   no of black pixels > 4473: 0 (61.66/0.25)
|   |   |   |   |   |   |   |   |   |   |   |   |   height > 83
|   |   |   |   |   |   |   |   |   |   |   |   |   |   entropy <= 0.194884: 0 (128.94/0.25)
|   |   |   |   |   |   |   |   |   |   |   |   |   |   entropy > 0.194884
|   |   |   |   |   |   |   |   |   |   |   |   |   |   |   height <= 92: 0 (31.08/0.25)
|   |   |   |   |   |   |   |   |   |   |   |   |   |   |   height > 92: 1 (4.82)
|   |   |   |   |   |   |   |   |   |   |   |   no of exterior contours > 3
|   |   |   |   |   |   |   |   |   |   |   |   |   no negative slope components <= 0.046329
|   |   |   |   |   |   |   |   |   |   |   |   |   |   height <= 11
|   |   |   |   |   |   |   |   |   |   |   |   |   |   |   no horizontal slope components <= 0.0153: 0 (33.87/0.25)
|   |   |   |   |   |   |   |   |   |   |   |   |   |   |   no horizontal slope components > 0.0153: 1 (61.91/0.25)
|   |   |   |   |   |   |   |   |   |   |   |   |   |   height > 11
|   |   |   |   |   |   |   |   |   |   |   |   |   |   |   entropy <= 0.246574: 0 (537.68/2.53)
|   |   |   |   |   |   |   |   |   |   |   |   |   |   |   entropy > 0.246574
|   |   |   |   |   |   |   |   |   |   |   |   |   |   |   |   no horizontal slope components <= 0.001131: 0 (47.03)
|   |   |   |   |   |   |   |   |   |   |   |   |   |   |   |   no horizontal slope components > 0.001131: 1 (34.38)
|   |   |   |   |   |   |   |   |   |   |   |   |   no negative slope components > 0.046329: 1 (100.09)
|   |   |   |   |   |   |   |   |   |   gray level threshold > 7
|   |   |   |   |   |   |   |   |   |   |   no horizontal slope components <= 0.045533
|   |   |   |   |   |   |   |   |   |   |   |   no of exterior contours <= 3: 1 (396.58/2.53)
|   |   |   |   |   |   |   |   |   |   |   |   no of exterior contours > 3
|   |   |   |   |   |   |   |   |   |   |   |   |   entropy <= 0.146038: 0 (64.19/1.01)
|   |   |   |   |   |   |   |   |   |   |   |   |   entropy > 0.146038
|   |   |   |   |   |   |   |   |   |   |   |   |   |   no vertical slope components <= 0.015223
|   |   |   |   |   |   |   |   |   |   |   |   |   |   |   no vertical slope components <= 0.011978: 1 (32.09/0.51)
|   |   |   |   |   |   |   |   |   |   |   |   |   |   |   no vertical slope components > 0.011978: 0 (47.54)
|   |   |   |   |   |   |   |   |   |   |   |   |   |   no vertical slope components > 0.015223: 1 (190.54/0.25)
|   |   |   |   |   |   |   |   |   |   |   no horizontal slope components > 0.045533: 0 (48.3/1.27)
|   |   |   |   |   |   |   |   no vertical slope components > 0.056208
|   |   |   |   |   |   |   |   |   no negative slope components <= 0.031986: 1 (278.73/1.52)
|   |   |   |   |   |   |   |   |   no negative slope components > 0.031986
|   |   |   |   |   |   |   |   |   |   no negative slope components <= 0.032238: 0 (47.03)
|   |   |   |   |   |   |   |   |   |   no negative slope components > 0.032238: 1 (11.91/0.25)
|   |   |   |   |   gray level threshold > 12
|   |   |   |   |   |   no horizontal slope components <= 0.016676
|   |   |   |   |   |   |   entropy <= 0.228766: 0 (211.81/0.76)
|   |   |   |   |   |   |   entropy > 0.228766: 1 (52.86)
|   |   |   |   |   |   no horizontal slope components > 0.016676
|   |   |   |   |   |   |   gray level threshold <= 14
|   |   |   |   |   |   |   |   no vertical slope components <= 0.045274
|   |   |   |   |   |   |   |   |   entropy <= 0.112788: 0 (3.55)
|   |   |   |   |   |   |   |   |   entropy > 0.112788: 1 (2.03/0.51)
|   |   |   |   |   |   |   |   no vertical slope components > 0.045274: 1 (21.54/0.51)
|   |   |   |   |   |   |   gray level threshold > 14: 1 (585.93/2.28)
|   |   |   |   no of exterior contours > 31
|   |   |   |   |   entropy <= 0.071399
|   |   |   |   |   |   no positive slope components <= 0.00226: 1 (30.57)
|   |   |   |   |   |   no positive slope components > 0.00226: 0 (9.63)
|   |   |   |   |   entropy > 0.071399: 1 (218.38/0.51)
|   |   |   no of interior contours > 13
|   |   |   |   height <= 154
|   |   |   |   |   no vertical slope components <= 0.001938
|   |   |   |   |   |   no vertical slope components <= 0.000338
|   |   |   |   |   |   |   entropy <= 0.101456: 0 (4.05)
|   |   |   |   |   |   |   entropy > 0.101456: 1 (61.66/0.25)
|   |   |   |   |   |   no vertical slope components > 0.000338: 0 (289.23/1.77)
|   |   |   |   |   no vertical slope components > 0.001938
|   |   |   |   |   |   entropy <= 0.249623
|   |   |   |   |   |   |   no of black pixels <= 1627
|   |   |   |   |   |   |   |   no of exterior contours <= 3
|   |   |   |   |   |   |   |   |   no vertical slope components <= 0.062596
|   |   |   |   |   |   |   |   |   |   entropy <= 0.171284
|   |   |   |   |   |   |   |   |   |   |   no negative slope components <= 0.018983: 0 (725.09/0.76)
|   |   |   |   |   |   |   |   |   |   |   no negative slope components > 0.018983
|   |   |   |   |   |   |   |   |   |   |   |   no negative slope components <= 0.019274: 1 (30.83)
|   |   |   |   |   |   |   |   |   |   |   |   no negative slope components > 0.019274: 0 (45.02/0.76)
|   |   |   |   |   |   |   |   |   |   entropy > 0.171284
|   |   |   |   |   |   |   |   |   |   |   no of black pixels <= 729: 0 (281.3/62.92)
|   |   |   |   |   |   |   |   |   |   |   no of black pixels > 729: 1 (98.62/0.51)
|   |   |   |   |   |   |   |   |   no vertical slope components > 0.062596: 1 (134.97/2.79)
|   |   |   |   |   |   |   |   no of exterior contours > 3
|   |   |   |   |   |   |   |   |   no of exterior contours <= 19
|   |   |   |   |   |   |   |   |   |   no of black pixels <= 1432
|   |   |   |   |   |   |   |   |   |   |   no vertical slope components <= 0.103645
|   |   |   |   |   |   |   |   |   |   |   |   no negative slope components <= 0.013346
|   |   |   |   |   |   |   |   |   |   |   |   |   no positive slope components <= 0.007876
|   |   |   |   |   |   |   |   |   |   |   |   |   |   gray level threshold <= 12: 0 (140.29)
|   |   |   |   |   |   |   |   |   |   |   |   |   |   gray level threshold > 12: 1 (30.57)
|   |   |   |   |   |   |   |   |   |   |   |   |   no positive slope components > 0.007876
|   |   |   |   |   |   |   |   |   |   |   |   |   |   slant <= 0.058916
|   |   |   |   |   |   |   |   |   |   |   |   |   |   |   no negative slope components <= 0.004202
|   |   |   |   |   |   |   |   |   |   |   |   |   |   |   |   gray level threshold <= 9: 0 (43.25)
|   |   |   |   |   |   |   |   |   |   |   |   |   |   |   |   gray level threshold > 9: 1 (31.33/0.25)
|   |   |   |   |   |   |   |   |   |   |   |   |   |   |   no negative slope components > 0.004202
|   |   |   |   |   |   |   |   |   |   |   |   |   |   |   |   entropy <= 0.098581
|   |   |   |   |   |   |   |   |   |   |   |   |   |   |   |   |   no of exterior contours <= 10: 0 (9.12)
|   |   |   |   |   |   |   |   |   |   |   |   |   |   |   |   |   no of exterior contours > 10
|   |   |   |   |   |   |   |   |   |   |   |   |   |   |   |   |   |   no of black pixels <= 1185
|   |   |   |   |   |   |   |   |   |   |   |   |   |   |   |   |   |   |   height <= 10: 1 (30.83/0.25)
|   |   |   |   |   |   |   |   |   |   |   |   |   |   |   |   |   |   |   height > 10: 0 (2.53)
|   |   |   |   |   |   |   |   |   |   |   |   |   |   |   |   |   |   no of black pixels > 1185: 1 (94.56/0.51)
|   |   |   |   |   |   |   |   |   |   |   |   |   |   |   |   entropy > 0.098581: 1 (581.2/2.79)
|   |   |   |   |   |   |   |   |   |   |   |   |   |   slant > 0.058916: 0 (209.28/32.09)
|   |   |   |   |   |   |   |   |   |   |   |   no negative slope components > 0.013346
|   |   |   |   |   |   |   |   |   |   |   |   |   no positive slope components <= 0.018774: 1 (812.27/8.36)
|   |   |   |   |   |   |   |   |   |   |   |   |   no positive slope components > 0.018774
|   |   |   |   |   |   |   |   |   |   |   |   |   |   no of interior contours <= 18: 0 (40.96/1.01)
|   |   |   |   |   |   |   |   |   |   |   |   |   |   no of interior contours > 18
|   |   |   |   |   |   |   |   |   |   |   |   |   |   |   no horizontal slope components <= 0.019712
|   |   |   |   |   |   |   |   |   |   |   |   |   |   |   |   entropy <= 0.126165: 0 (3.8)
|   |   |   |   |   |   |   |   |   |   |   |   |   |   |   |   entropy > 0.126165: 1 (2.53/0.51)
|   |   |   |   |   |   |   |   |   |   |   |   |   |   |   no horizontal slope components > 0.019712
|   |   |   |   |   |   |   |   |   |   |   |   |   |   |   |   no vertical slope components <= 0.024849: 1 (78.11)
|   |   |   |   |   |   |   |   |   |   |   |   |   |   |   |   no vertical slope components > 0.024849
|   |   |   |   |   |   |   |   |   |   |   |   |   |   |   |   |   no vertical slope components <= 0.062228: 0 (2.53/0.25)
|   |   |   |   |   |   |   |   |   |   |   |   |   |   |   |   |   no vertical slope components > 0.062228: 1 (32.35/0.25)
|   |   |   |   |   |   |   |   |   |   |   no vertical slope components > 0.103645
|   |   |   |   |   |   |   |   |   |   |   |   gray level threshold <= 6: 0 (62.42/0.25)
|   |   |   |   |   |   |   |   |   |   |   |   gray level threshold > 6: 1 (8.11/0.25)
|   |   |   |   |   |   |   |   |   |   no of black pixels > 1432
|   |   |   |   |   |   |   |   |   |   |   no horizontal slope components <= 0.032024: 0 (174.39/0.51)
|   |   |   |   |   |   |   |   |   |   |   no horizontal slope components > 0.032024: 1 (64.44/1.01)
|   |   |   |   |   |   |   |   |   no of exterior contours > 19: 0 (107.74/1.01)
|   |   |   |   |   |   |   no of black pixels > 1627
|   |   |   |   |   |   |   |   no of exterior contours <= 15
|   |   |   |   |   |   |   |   |   no positive slope components <= 0.03814
|   |   |   |   |   |   |   |   |   |   slant <= 0.011911
|   |   |   |   |   |   |   |   |   |   |   no negative slope components <= 0.006267
|   |   |   |   |   |   |   |   |   |   |   |   no positive slope components <= 0.01061: 0 (5.32)
|   |   |   |   |   |   |   |   |   |   |   |   no positive slope components > 0.01061: 1 (62.92/1.52)
|   |   |   |   |   |   |   |   |   |   |   no negative slope components > 0.006267: 1 (456.01/2.03)
|   |   |   |   |   |   |   |   |   |   slant > 0.011911
|   |   |   |   |   |   |   |   |   |   |   slant <= 0.014845: 0 (99.38/0.76)
|   |   |   |   |   |   |   |   |   |   |   slant > 0.014845
|   |   |   |   |   |   |   |   |   |   |   |   no vertical slope components <= 0.032542
|   |   |   |   |   |   |   |   |   |   |   |   |   no vertical slope components <= 0.031693
|   |   |   |   |   |   |   |   |   |   |   |   |   |   no of black pixels <= 1752: 0 (63.94/0.76)
|   |   |   |   |   |   |   |   |   |   |   |   |   |   no of black pixels > 1752
|   |   |   |   |   |   |   |   |   |   |   |   |   |   |   no positive slope components <= 0.034878
|   |   |   |   |   |   |   |   |   |   |   |   |   |   |   |   no negative slope components <= 0.014044
|   |   |   |   |   |   |   |   |   |   |   |   |   |   |   |   |   no positive slope components <= 0.024268: 0 (110.22/0.76)
|   |   |   |   |   |   |   |   |   |   |   |   |   |   |   |   |   no positive slope components > 0.024268
|   |   |   |   |   |   |   |   |   |   |   |   |   |   |   |   |   |   gray level threshold <= 7
|   |   |   |   |   |   |   |   |   |   |   |   |   |   |   |   |   |   |   entropy <= 0.128961: 0 (3.04)
|   |   |   |   |   |   |   |   |   |   |   |   |   |   |   |   |   |   |   entropy > 0.128961: 1 (30.57)
|   |   |   |   |   |   |   |   |   |   |   |   |   |   |   |   |   |   gray level threshold > 7: 1 (77.6)
|   |   |   |   |   |   |   |   |   |   |   |   |   |   |   |   no negative slope components > 0.014044: 1 (445.83/9.12)
|   |   |   |   |   |   |   |   |   |   |   |   |   |   |   no positive slope components > 0.034878: 0 (32.35)
|   |   |   |   |   |   |   |   |   |   |   |   |   no vertical slope components > 0.031693: 0 (92.23)
|   |   |   |   |   |   |   |   |   |   |   |   no vertical slope components > 0.032542
|   |   |   |   |   |   |   |   |   |   |   |   |   no of exterior contours <= 13
|   |   |   |   |   |   |   |   |   |   |   |   |   |   entropy <= 0.206108
|   |   |   |   |   |   |   |   |   |   |   |   |   |   |   slant <= 0.039906: 1 (580.33/2.53)
|   |   |   |   |   |   |   |   |   |   |   |   |   |   |   slant > 0.039906
|   |   |   |   |   |   |   |   |   |   |   |   |   |   |   |   no negative slope components <= 0.019153
|   |   |   |   |   |   |   |   |   |   |   |   |   |   |   |   |   gray level threshold <= 0: 1 (78.36/0.76)
|   |   |   |   |   |   |   |   |   |   |   |   |   |   |   |   |   gray level threshold > 0
|   |   |   |   |   |   |   |   |   |   |   |   |   |   |   |   |   |   gray level threshold <= 9: 0 (8.62/0.25)
|   |   |   |   |   |   |   |   |   |   |   |   |   |   |   |   |   |   gray level threshold > 9: 1 (2.28)
|   |   |   |   |   |   |   |   |   |   |   |   |   |   |   |   no negative slope components > 0.019153: 1 (284.04/2.03)
|   |   |   |   |   |   |   |   |   |   |   |   |   |   entropy > 0.206108
|   |   |   |   |   |   |   |   |   |   |   |   |   |   |   entropy <= 0.207556: 0 (30.57)
|   |   |   |   |   |   |   |   |   |   |   |   |   |   |   entropy > 0.207556: 1 (6.59)
|   |   |   |   |   |   |   |   |   |   |   |   |   no of exterior contours > 13: 0 (32.86/1.27)
|   |   |   |   |   |   |   |   |   no positive slope components > 0.03814
|   |   |   |   |   |   |   |   |   |   entropy <= 0.062668
|   |   |   |   |   |   |   |   |   |   |   gray level threshold <= 6
|   |   |   |   |   |   |   |   |   |   |   |   no negative slope components <= 0.011906: 1 (30.83)
|   |   |   |   |   |   |   |   |   |   |   |   no negative slope components > 0.011906: 0 (3.55)
|   |   |   |   |   |   |   |   |   |   |   gray level threshold > 6: 1 (92.23/0.51)
|   |   |   |   |   |   |   |   |   |   entropy > 0.062668: 1 (334.87/0.51)
|   |   |   |   |   |   |   |   no of exterior contours > 15
|   |   |   |   |   |   |   |   |   gray level threshold <= 3: 0 (111.07/0.51)
|   |   |   |   |   |   |   |   |   gray level threshold > 3
|   |   |   |   |   |   |   |   |   |   no horizontal slope components <= 0.03017
|   |   |   |   |   |   |   |   |   |   |   no horizontal slope components <= 0.012494
|   |   |   |   |   |   |   |   |   |   |   |   no horizontal slope components <= 0.000502
|   |   |   |   |   |   |   |   |   |   |   |   |   no of interior contours <= 66: 1 (30.83)
|   |   |   |   |   |   |   |   |   |   |   |   |   no of interior contours > 66: 0 (2.28/0.25)
|   |   |   |   |   |   |   |   |   |   |   |   no horizontal slope components > 0.000502
|   |   |   |   |   |   |   |   |   |   |   |   |   no negative slope components <= 0.119026: 0 (87.25/0.51)
|   |   |   |   |   |   |   |   |   |   |   |   |   no negative slope components > 0.119026
|   |   |   |   |   |   |   |   |   |   |   |   |   |   no of exterior contours <= 1456: 0 (3.29/0.25)
|   |   |   |   |   |   |   |   |   |   |   |   |   |   no of exterior contours > 1456: 1 (3.8/0.25)
|   |   |   |   |   |   |   |   |   |   |   no horizontal slope components > 0.012494
|   |   |   |   |   |   |   |   |   |   |   |   no of exterior contours <= 759: 1 (311.88/3.29)
|   |   |   |   |   |   |   |   |   |   |   |   no of exterior contours > 759
|   |   |   |   |   |   |   |   |   |   |   |   |   no negative slope components <= 0.122433: 0 (20.53/0.25)
|   |   |   |   |   |   |   |   |   |   |   |   |   no negative slope components > 0.122433
|   |   |   |   |   |   |   |   |   |   |   |   |   |   no of exterior contours <= 2211
|   |   |   |   |   |   |   |   |   |   |   |   |   |   |   entropy <= 0.15704: 0 (6.34/0.25)
|   |   |   |   |   |   |   |   |   |   |   |   |   |   |   entropy > 0.15704: 1 (2.28)
|   |   |   |   |   |   |   |   |   |   |   |   |   |   no of exterior contours > 2211: 1 (111.98/0.51)
|   |   |   |   |   |   |   |   |   |   no horizontal slope components > 0.03017
|   |   |   |   |   |   |   |   |   |   |   entropy <= 0.15654: 0 (221.35/2.53)
|   |   |   |   |   |   |   |   |   |   |   entropy > 0.15654: 1 (82.42/1.01)
|   |   |   |   |   |   entropy > 0.249623: 1 (242.08/0.51)
|   |   |   |   height > 154
|   |   |   |   |   no of black pixels <= 65613
|   |   |   |   |   |   no horizontal slope components <= 0.061747
|   |   |   |   |   |   |   entropy <= 0.179827: 0 (386.86/0.25)
|   |   |   |   |   |   |   entropy > 0.179827
|   |   |   |   |   |   |   |   no of exterior contours <= 2674
|   |   |   |   |   |   |   |   |   gray level threshold <= 0: 0 (30.57)
|   |   |   |   |   |   |   |   |   gray level threshold > 0: 1 (5.58)
|   |   |   |   |   |   |   |   no of exterior contours > 2674: 0 (96.34/0.76)
|   |   |   |   |   |   no horizontal slope components > 0.061747
|   |   |   |   |   |   |   entropy <= 0.147625: 0 (16.22)
|   |   |   |   |   |   |   entropy > 0.147625: 1 (36.15/1.01)
|   |   |   |   |   no of black pixels > 65613: 1 (100.09/2.53)
|   |   no of black pixels > 69180
|   |   |   entropy <= 0.254432
|   |   |   |   height <= 38
|   |   |   |   |   no vertical slope components <= 0.079758: 0 (13.94)
|   |   |   |   |   no vertical slope components > 0.079758: 1 (35.9/0.76)
|   |   |   |   height > 38
|   |   |   |   |   gray level threshold <= 42
|   |   |   |   |   |   entropy <= 0.091436: 0 (19.01/2.03)
|   |   |   |   |   |   entropy > 0.091436: 1 (28.64/1.52)
|   |   |   |   |   gray level threshold > 42
|   |   |   |   |   |   no negative slope components <= 0.146702: 0 (527.38/4.05)
|   |   |   |   |   |   no negative slope components > 0.146702
|   |   |   |   |   |   |   no vertical slope components <= 0.060033: 0 (29.4)
|   |   |   |   |   |   |   no vertical slope components > 0.060033: 1 (8.87/1.52)
|   |   |   entropy > 0.254432: 1 (50.34)
|   no positive slope components > 0.100553: 1 (464.26)
entropy > 0.316699: 1 (3749.25)

Number of Leaves  : 	165

Size of the tree : 	329


Weight: 4.3

J48 pruned tree
------------------

entropy <= 0.176975
|   no negative slope components <= 0.000464
|   |   slant <= 0.02252
|   |   |   no vertical slope components <= 0.050538: 0 (93.91)
|   |   |   no vertical slope components > 0.050538: 1 (15.49)
|   |   slant > 0.02252
|   |   |   no negative slope components <= 0.000407
|   |   |   |   slant <= 0.022803: 1 (23.83)
|   |   |   |   slant > 0.022803: 0 (14.97)
|   |   |   no negative slope components > 0.000407: 1 (1164.57/0.64)
|   no negative slope components > 0.000464
|   |   no of interior contours <= 7
|   |   |   no negative slope components <= 0.068904
|   |   |   |   no of exterior contours <= 31
|   |   |   |   |   no horizontal slope components <= 0.035059
|   |   |   |   |   |   height <= 28
|   |   |   |   |   |   |   gray level threshold <= 1: 0 (254.27)
|   |   |   |   |   |   |   gray level threshold > 1
|   |   |   |   |   |   |   |   entropy <= 0.059727: 0 (150.78)
|   |   |   |   |   |   |   |   entropy > 0.059727
|   |   |   |   |   |   |   |   |   slant <= 0.104472
|   |   |   |   |   |   |   |   |   |   gray level threshold <= 8
|   |   |   |   |   |   |   |   |   |   |   no positive slope components <= 0.010712: 0 (155.75)
|   |   |   |   |   |   |   |   |   |   |   no positive slope components > 0.010712
|   |   |   |   |   |   |   |   |   |   |   |   height <= 6: 0 (60.86)
|   |   |   |   |   |   |   |   |   |   |   |   height > 6
|   |   |   |   |   |   |   |   |   |   |   |   |   no of black pixels <= 2181
|   |   |   |   |   |   |   |   |   |   |   |   |   |   no vertical slope components <= 0.028521
|   |   |   |   |   |   |   |   |   |   |   |   |   |   |   entropy <= 0.100371: 0 (17.8)
|   |   |   |   |   |   |   |   |   |   |   |   |   |   |   entropy > 0.100371
|   |   |   |   |   |   |   |   |   |   |   |   |   |   |   |   no of interior contours <= 6
|   |   |   |   |   |   |   |   |   |   |   |   |   |   |   |   |   no of interior contours <= 3
|   |   |   |   |   |   |   |   |   |   |   |   |   |   |   |   |   |   no of black pixels <= 1801: 0 (18.45)
|   |   |   |   |   |   |   |   |   |   |   |   |   |   |   |   |   |   no of black pixels > 1801: 1 (15.62/0.13)
|   |   |   |   |   |   |   |   |   |   |   |   |   |   |   |   |   no of interior contours > 3: 1 (89.31/2.31)
|   |   |   |   |   |   |   |   |   |   |   |   |   |   |   |   no of interior contours > 6: 0 (9.83)
|   |   |   |   |   |   |   |   |   |   |   |   |   |   no vertical slope components > 0.028521: 1 (137.11/2.31)
|   |   |   |   |   |   |   |   |   |   |   |   |   no of black pixels > 2181
|   |   |   |   |   |   |   |   |   |   |   |   |   |   no horizontal slope components <= 0.031971: 0 (37.35)
|   |   |   |   |   |   |   |   |   |   |   |   |   |   no horizontal slope components > 0.031971: 1 (15.49)
|   |   |   |   |   |   |   |   |   |   gray level threshold > 8
|   |   |   |   |   |   |   |   |   |   |   entropy <= 0.123536
|   |   |   |   |   |   |   |   |   |   |   |   no of exterior contours <= 0: 1 (24.22/0.39)
|   |   |   |   |   |   |   |   |   |   |   |   no of exterior contours > 0: 0 (4.11)
|   |   |   |   |   |   |   |   |   |   |   entropy > 0.123536: 1 (80.41/0.51)
|   |   |   |   |   |   |   |   |   slant > 0.104472
|   |   |   |   |   |   |   |   |   |   entropy <= 0.060045: 1 (15.49)
|   |   |   |   |   |   |   |   |   |   entropy > 0.060045: 0 (192.01/0.51)
|   |   |   |   |   |   height > 28
|   |   |   |   |   |   |   no positive slope components <= 0.046382
|   |   |   |   |   |   |   |   no vertical slope components <= 0.003009
|   |   |   |   |   |   |   |   |   no of exterior contours <= 2
|   |   |   |   |   |   |   |   |   |   no horizontal slope components <= 0.012342: 0 (19.72)
|   |   |   |   |   |   |   |   |   |   no horizontal slope components > 0.012342: 1 (48.57/0.9)
|   |   |   |   |   |   |   |   |   no of exterior contours > 2: 0 (44.86)
|   |   |   |   |   |   |   |   no vertical slope components > 0.003009
|   |   |   |   |   |   |   |   |   height <= 65
|   |   |   |   |   |   |   |   |   |   slant <= 0.00735
|   |   |   |   |   |   |   |   |   |   |   slant <= 0.007242: 0 (19.08)
|   |   |   |   |   |   |   |   |   |   |   slant > 0.007242: 1 (23.96/0.13)
|   |   |   |   |   |   |   |   |   |   slant > 0.00735
|   |   |   |   |   |   |   |   |   |   |   no vertical slope components <= 0.019335: 0 (3689.85)
|   |   |   |   |   |   |   |   |   |   |   no vertical slope components > 0.019335
|   |   |   |   |   |   |   |   |   |   |   |   height <= 33
|   |   |   |   |   |   |   |   |   |   |   |   |   entropy <= 0.139817: 0 (14.97)
|   |   |   |   |   |   |   |   |   |   |   |   |   entropy > 0.139817: 1 (39.33)
|   |   |   |   |   |   |   |   |   |   |   |   height > 33
|   |   |   |   |   |   |   |   |   |   |   |   |   no horizontal slope components <= 0.011381
|   |   |   |   |   |   |   |   |   |   |   |   |   |   entropy <= 0.142527: 0 (20.12)
|   |   |   |   |   |   |   |   |   |   |   |   |   |   entropy > 0.142527: 1 (33.41/0.13)
|   |   |   |   |   |   |   |   |   |   |   |   |   no horizontal slope components > 0.011381: 0 (1478.5/0.26)
|   |   |   |   |   |   |   |   |   height > 65
|   |   |   |   |   |   |   |   |   |   no positive slope components <= 0.043713
|   |   |   |   |   |   |   |   |   |   |   height <= 66
|   |   |   |   |   |   |   |   |   |   |   |   entropy <= 0.118488: 0 (2.57)
|   |   |   |   |   |   |   |   |   |   |   |   entropy > 0.118488: 1 (23.83)
|   |   |   |   |   |   |   |   |   |   |   height > 66
|   |   |   |   |   |   |   |   |   |   |   |   no vertical slope components <= 0.043779: 0 (199.03/0.26)
|   |   |   |   |   |   |   |   |   |   |   |   no vertical slope components > 0.043779
|   |   |   |   |   |   |   |   |   |   |   |   |   gray level threshold <= 5: 0 (17.04)
|   |   |   |   |   |   |   |   |   |   |   |   |   gray level threshold > 5: 1 (10.09/0.26)
|   |   |   |   |   |   |   |   |   |   no positive slope components > 0.043713: 1 (24.35/0.51)
|   |   |   |   |   |   |   no positive slope components > 0.046382
|   |   |   |   |   |   |   |   no horizontal slope components <= 0.022407
|   |   |   |   |   |   |   |   |   slant <= 0.188627: 0 (64.09)
|   |   |   |   |   |   |   |   |   slant > 0.188627: 1 (10.09/0.64)
|   |   |   |   |   |   |   |   no horizontal slope components > 0.022407
|   |   |   |   |   |   |   |   |   no of black pixels <= 705: 0 (10.99)
|   |   |   |   |   |   |   |   |   no of black pixels > 705
|   |   |   |   |   |   |   |   |   |   entropy <= 0.046133: 0 (9.71)
|   |   |   |   |   |   |   |   |   |   entropy > 0.046133: 1 (66.82/0.13)
|   |   |   |   |   no horizontal slope components > 0.035059
|   |   |   |   |   |   gray level threshold <= 13
|   |   |   |   |   |   |   no of black pixels <= 624
|   |   |   |   |   |   |   |   slant <= 0.017225
|   |   |   |   |   |   |   |   |   no of exterior contours <= 8: 0 (2.44)
|   |   |   |   |   |   |   |   |   no of exterior contours > 8: 1 (9.45)
|   |   |   |   |   |   |   |   slant > 0.017225: 0 (199.08/0.51)
|   |   |   |   |   |   |   no of black pixels > 624
|   |   |   |   |   |   |   |   no vertical slope components <= 0.025526: 0 (58.37)
|   |   |   |   |   |   |   |   no vertical slope components > 0.025526
|   |   |   |   |   |   |   |   |   no of black pixels <= 828: 1 (83.26/1.93)
|   |   |   |   |   |   |   |   |   no of black pixels > 828
|   |   |   |   |   |   |   |   |   |   no vertical slope components <= 0.110274
|   |   |   |   |   |   |   |   |   |   |   entropy <= 0.081277: 0 (161.84/0.13)
|   |   |   |   |   |   |   |   |   |   |   entropy > 0.081277
|   |   |   |   |   |   |   |   |   |   |   |   no negative slope components <= 0.005607: 0 (50.32/0.13)
|   |   |   |   |   |   |   |   |   |   |   |   no negative slope components > 0.005607
|   |   |   |   |   |   |   |   |   |   |   |   |   no of black pixels <= 874: 0 (40.57/9.58)
|   |   |   |   |   |   |   |   |   |   |   |   |   no of black pixels > 874
|   |   |   |   |   |   |   |   |   |   |   |   |   |   no positive slope components <= 0.02269: 1 (125.87/1.41)
|   |   |   |   |   |   |   |   |   |   |   |   |   |   no positive slope components > 0.02269
|   |   |   |   |   |   |   |   |   |   |   |   |   |   |   no positive slope components <= 0.031897: 0 (26.1/0.26)
|   |   |   |   |   |   |   |   |   |   |   |   |   |   |   no positive slope components > 0.031897
|   |   |   |   |   |   |   |   |   |   |   |   |   |   |   |   no of exterior contours <= 9
|   |   |   |   |   |   |   |   |   |   |   |   |   |   |   |   |   no of black pixels <= 1452: 0 (34.18/0.39)
|   |   |   |   |   |   |   |   |   |   |   |   |   |   |   |   |   no of black pixels > 1452: 1 (69.22/0.13)
|   |   |   |   |   |   |   |   |   |   |   |   |   |   |   |   no of exterior contours > 9: 0 (9.45)
|   |   |   |   |   |   |   |   |   |   no vertical slope components > 0.110274: 1 (37.09/0.64)
|   |   |   |   |   |   gray level threshold > 13: 1 (37.41)
|   |   |   |   no of exterior contours > 31: 1 (111.57/1.8)
|   |   |   no negative slope components > 0.068904: 1 (148.69)
|   |   no of interior contours > 7
|   |   |   height <= 179
|   |   |   |   no vertical slope components <= 0.127906
|   |   |   |   |   no horizontal slope components <= 0.087965
|   |   |   |   |   |   entropy <= 0.149828
|   |   |   |   |   |   |   no of exterior contours <= 23
|   |   |   |   |   |   |   |   no vertical slope components <= 0.06144
|   |   |   |   |   |   |   |   |   no negative slope components <= 0.025058
|   |   |   |   |   |   |   |   |   |   no of black pixels <= 3756
|   |   |   |   |   |   |   |   |   |   |   no of interior contours <= 31
|   |   |   |   |   |   |   |   |   |   |   |   no of black pixels <= 2332
|   |   |   |   |   |   |   |   |   |   |   |   |   gray level threshold <= 7
|   |   |   |   |   |   |   |   |   |   |   |   |   |   no of black pixels <= 612: 0 (465.11/0.13)
|   |   |   |   |   |   |   |   |   |   |   |   |   |   no of black pixels > 612
|   |   |   |   |   |   |   |   |   |   |   |   |   |   |   no vertical slope components <= 0.008602: 0 (265.97)
|   |   |   |   |   |   |   |   |   |   |   |   |   |   |   no vertical slope components > 0.008602
|   |   |   |   |   |   |   |   |   |   |   |   |   |   |   |   slant <= 0.092566
|   |   |   |   |   |   |   |   |   |   |   |   |   |   |   |   |   slant <= 0.091019
|   |   |   |   |   |   |   |   |   |   |   |   |   |   |   |   |   |   no of exterior contours <= 7
|   |   |   |   |   |   |   |   |   |   |   |   |   |   |   |   |   |   |   no positive slope components <= 0.002263: 0 (52.13)
|   |   |   |   |   |   |   |   |   |   |   |   |   |   |   |   |   |   |   no positive slope components > 0.002263
|   |   |   |   |   |   |   |   |   |   |   |   |   |   |   |   |   |   |   |   entropy <= 0.139636
|   |   |   |   |   |   |   |   |   |   |   |   |   |   |   |   |   |   |   |   |   entropy <= 0.122476
|   |   |   |   |   |   |   |   |   |   |   |   |   |   |   |   |   |   |   |   |   |   no horizontal slope components <= 0.035339
|   |   |   |   |   |   |   |   |   |   |   |   |   |   |   |   |   |   |   |   |   |   |   no vertical slope components <= 0.050272
|   |   |   |   |   |   |   |   |   |   |   |   |   |   |   |   |   |   |   |   |   |   |   |   no horizontal slope components <= 0.034683
|   |   |   |   |   |   |   |   |   |   |   |   |   |   |   |   |   |   |   |   |   |   |   |   |   no negative slope components <= 0.007293: 0 (104.84)
|   |   |   |   |   |   |   |   |   |   |   |   |   |   |   |   |   |   |   |   |   |   |   |   |   no negative slope components > 0.007293
|   |   |   |   |   |   |   |   |   |   |   |   |   |   |   |   |   |   |   |   |   |   |   |   |   |   no negative slope components <= 0.007893: 1 (48.82/1.16)
|   |   |   |   |   |   |   |   |   |   |   |   |   |   |   |   |   |   |   |   |   |   |   |   |   |   no negative slope components > 0.007893
|   |   |   |   |   |   |   |   |   |   |   |   |   |   |   |   |   |   |   |   |   |   |   |   |   |   |   no of interior contours <= 16: 0 (139.11)
|   |   |   |   |   |   |   |   |   |   |   |   |   |   |   |   |   |   |   |   |   |   |   |   |   |   |   no of interior contours > 16
|   |   |   |   |   |   |   |   |   |   |   |   |   |   |   |   |   |   |   |   |   |   |   |   |   |   |   |   entropy <= 0.051238: 0 (39.98)
|   |   |   |   |   |   |   |   |   |   |   |   |   |   |   |   |   |   |   |   |   |   |   |   |   |   |   |   entropy > 0.051238
|   |   |   |   |   |   |   |   |   |   |   |   |   |   |   |   |   |   |   |   |   |   |   |   |   |   |   |   |   no of black pixels <= 1588: 0 (10.22/0.13)
|   |   |   |   |   |   |   |   |   |   |   |   |   |   |   |   |   |   |   |   |   |   |   |   |   |   |   |   |   no of black pixels > 1588: 1 (70.58/0.13)
|   |   |   |   |   |   |   |   |   |   |   |   |   |   |   |   |   |   |   |   |   |   |   |   no horizontal slope components > 0.034683: 1 (33.54/0.26)
|   |   |   |   |   |   |   |   |   |   |   |   |   |   |   |   |   |   |   |   |   |   |   no vertical slope components > 0.050272: 1 (64.79/0.51)
|   |   |   |   |   |   |   |   |   |   |   |   |   |   |   |   |   |   |   |   |   |   no horizontal slope components > 0.035339: 0 (141.68/0.26)
|   |   |   |   |   |   |   |   |   |   |   |   |   |   |   |   |   |   |   |   |   entropy > 0.122476
|   |   |   |   |   |   |   |   |   |   |   |   |   |   |   |   |   |   |   |   |   |   gray level threshold <= 2: 0 (9.83)
|   |   |   |   |   |   |   |   |   |   |   |   |   |   |   |   |   |   |   |   |   |   gray level threshold > 2: 1 (137.53/25.59)
|   |   |   |   |   |   |   |   |   |   |   |   |   |   |   |   |   |   |   |   entropy > 0.139636: 0 (41.21)
|   |   |   |   |   |   |   |   |   |   |   |   |   |   |   |   |   |   no of exterior contours > 7
|   |   |   |   |   |   |   |   |   |   |   |   |   |   |   |   |   |   |   no of black pixels <= 618: 1 (15.62/0.13)
|   |   |   |   |   |   |   |   |   |   |   |   |   |   |   |   |   |   |   no of black pixels > 618: 0 (218.3)
|   |   |   |   |   |   |   |   |   |   |   |   |   |   |   |   |   slant > 0.091019: 1 (33.28)
|   |   |   |   |   |   |   |   |   |   |   |   |   |   |   |   slant > 0.092566: 0 (89.68)
|   |   |   |   |   |   |   |   |   |   |   |   |   gray level threshold > 7
|   |   |   |   |   |   |   |   |   |   |   |   |   |   no of black pixels <= 1608
|   |   |   |   |   |   |   |   |   |   |   |   |   |   |   no of exterior contours <= 2: 0 (58.43)
|   |   |   |   |   |   |   |   |   |   |   |   |   |   |   no of exterior contours > 2
|   |   |   |   |   |   |   |   |   |   |   |   |   |   |   |   height <= 5: 0 (35.29/0.13)
|   |   |   |   |   |   |   |   |   |   |   |   |   |   |   |   height > 5
|   |   |   |   |   |   |   |   |   |   |   |   |   |   |   |   |   no negative slope components <= 0.016662
|   |   |   |   |   |   |   |   |   |   |   |   |   |   |   |   |   |   no vertical slope components <= 0.042435
|   |   |   |   |   |   |   |   |   |   |   |   |   |   |   |   |   |   |   no of interior contours <= 26
|   |   |   |   |   |   |   |   |   |   |   |   |   |   |   |   |   |   |   |   no of black pixels <= 96: 1 (31.38/0.39)
|   |   |   |   |   |   |   |   |   |   |   |   |   |   |   |   |   |   |   |   no of black pixels > 96
|   |   |   |   |   |   |   |   |   |   |   |   |   |   |   |   |   |   |   |   |   height <= 6: 1 (15.75/0.26)
|   |   |   |   |   |   |   |   |   |   |   |   |   |   |   |   |   |   |   |   |   height > 6
|   |   |   |   |   |   |   |   |   |   |   |   |   |   |   |   |   |   |   |   |   |   no positive slope components <= 0.045511: 0 (153.05)
|   |   |   |   |   |   |   |   |   |   |   |   |   |   |   |   |   |   |   |   |   |   no positive slope components > 0.045511: 1 (9.45)
|   |   |   |   |   |   |   |   |   |   |   |   |   |   |   |   |   |   |   no of interior contours > 26: 1 (24.35/0.51)
|   |   |   |   |   |   |   |   |   |   |   |   |   |   |   |   |   |   no vertical slope components > 0.042435: 1 (55.34/0.39)
|   |   |   |   |   |   |   |   |   |   |   |   |   |   |   |   |   no negative slope components > 0.016662: 1 (211.04/20.18)
|   |   |   |   |   |   |   |   |   |   |   |   |   |   no of black pixels > 1608: 0 (102.35/0.13)
|   |   |   |   |   |   |   |   |   |   |   |   no of black pixels > 2332
|   |   |   |   |   |   |   |   |   |   |   |   |   no horizontal slope components <= 0.005623
|   |   |   |   |   |   |   |   |   |   |   |   |   |   no vertical slope components <= 0.029484
|   |   |   |   |   |   |   |   |   |   |   |   |   |   |   no of exterior contours <= 0: 1 (24.09/0.26)
|   |   |   |   |   |   |   |   |   |   |   |   |   |   |   no of exterior contours > 0: 0 (3.34)
|   |   |   |   |   |   |   |   |   |   |   |   |   |   no vertical slope components > 0.029484: 1 (79.9)
|   |   |   |   |   |   |   |   |   |   |   |   |   no horizontal slope components > 0.005623
|   |   |   |   |   |   |   |   |   |   |   |   |   |   no of black pixels <= 2364: 1 (49.16/0.39)
|   |   |   |   |   |   |   |   |   |   |   |   |   |   no of black pixels > 2364
|   |   |   |   |   |   |   |   |   |   |   |   |   |   |   no negative slope components <= 0.008793
|   |   |   |   |   |   |   |   |   |   |   |   |   |   |   |   gray level threshold <= 17: 0 (170.34)
|   |   |   |   |   |   |   |   |   |   |   |   |   |   |   |   gray level threshold > 17: 1 (9.45)
|   |   |   |   |   |   |   |   |   |   |   |   |   |   |   no negative slope components > 0.008793
|   |   |   |   |   |   |   |   |   |   |   |   |   |   |   |   entropy <= 0.019504: 0 (44.66)
|   |   |   |   |   |   |   |   |   |   |   |   |   |   |   |   entropy > 0.019504
|   |   |   |   |   |   |   |   |   |   |   |   |   |   |   |   |   height <= 55
|   |   |   |   |   |   |   |   |   |   |   |   |   |   |   |   |   |   no of black pixels <= 3342
|   |   |   |   |   |   |   |   |   |   |   |   |   |   |   |   |   |   |   gray level threshold <= 4
|   |   |   |   |   |   |   |   |   |   |   |   |   |   |   |   |   |   |   |   no of black pixels <= 3075: 0 (94.16/0.13)
|   |   |   |   |   |   |   |   |   |   |   |   |   |   |   |   |   |   |   |   no of black pixels > 3075: 1 (39.59/0.26)
|   |   |   |   |   |   |   |   |   |   |   |   |   |   |   |   |   |   |   gray level threshold > 4
|   |   |   |   |   |   |   |   |   |   |   |   |   |   |   |   |   |   |   |   height <= 32: 1 (110.16/0.26)
|   |   |   |   |   |   |   |   |   |   |   |   |   |   |   |   |   |   |   |   height > 32
|   |   |   |   |   |   |   |   |   |   |   |   |   |   |   |   |   |   |   |   |   entropy <= 0.127503: 0 (24.35)
|   |   |   |   |   |   |   |   |   |   |   |   |   |   |   |   |   |   |   |   |   entropy > 0.127503: 1 (9.58)
|   |   |   |   |   |   |   |   |   |   |   |   |   |   |   |   |   |   no of black pixels > 3342: 0 (44.61)
|   |   |   |   |   |   |   |   |   |   |   |   |   |   |   |   |   height > 55: 1 (90.03/1.41)
|   |   |   |   |   |   |   |   |   |   |   no of interior contours > 31
|   |   |   |   |   |   |   |   |   |   |   |   no of interior contours <= 45
|   |   |   |   |   |   |   |   |   |   |   |   |   no of black pixels <= 541
|   |   |   |   |   |   |   |   |   |   |   |   |   |   no of interior contours <= 44: 0 (61.14/0.26)
|   |   |   |   |   |   |   |   |   |   |   |   |   |   no of interior contours > 44: 1 (15.49)
|   |   |   |   |   |   |   |   |   |   |   |   |   no of black pixels > 541
|   |   |   |   |   |   |   |   |   |   |   |   |   |   no negative slope components <= 0.004264: 0 (41.85)
|   |   |   |   |   |   |   |   |   |   |   |   |   |   no negative slope components > 0.004264
|   |   |   |   |   |   |   |   |   |   |   |   |   |   |   no of exterior contours <= 10
|   |   |   |   |   |   |   |   |   |   |   |   |   |   |   |   height <= 19: 1 (64.92/0.51)
|   |   |   |   |   |   |   |   |   |   |   |   |   |   |   |   height > 19
|   |   |   |   |   |   |   |   |   |   |   |   |   |   |   |   |   gray level threshold <= 9: 0 (42.37)
|   |   |   |   |   |   |   |   |   |   |   |   |   |   |   |   |   gray level threshold > 9: 1 (9.71)
|   |   |   |   |   |   |   |   |   |   |   |   |   |   |   no of exterior contours > 10: 1 (222.36/0.77)
|   |   |   |   |   |   |   |   |   |   |   |   no of interior contours > 45: 0 (61.06)
|   |   |   |   |   |   |   |   |   |   no of black pixels > 3756: 0 (296.28/0.51)
|   |   |   |   |   |   |   |   |   no negative slope components > 0.025058
|   |   |   |   |   |   |   |   |   |   no vertical slope components <= 0.056261
|   |   |   |   |   |   |   |   |   |   |   slant <= 0.092778
|   |   |   |   |   |   |   |   |   |   |   |   no of interior contours <= 17
|   |   |   |   |   |   |   |   |   |   |   |   |   no horizontal slope components <= 0.012511: 0 (31.3)
|   |   |   |   |   |   |   |   |   |   |   |   |   no horizontal slope components > 0.012511
|   |   |   |   |   |   |   |   |   |   |   |   |   |   entropy <= 0.018986: 0 (16.14)
|   |   |   |   |   |   |   |   |   |   |   |   |   |   entropy > 0.018986
|   |   |   |   |   |   |   |   |   |   |   |   |   |   |   no of black pixels <= 3981: 1 (120.61/1.41)
|   |   |   |   |   |   |   |   |   |   |   |   |   |   |   no of black pixels > 3981: 0 (9.96/0.51)
|   |   |   |   |   |   |   |   |   |   |   |   no of interior contours > 17: 1 (271.04/1.28)
|   |   |   |   |   |   |   |   |   |   |   slant > 0.092778
|   |   |   |   |   |   |   |   |   |   |   |   no negative slope components <= 0.031203
|   |   |   |   |   |   |   |   |   |   |   |   |   slant <= 0.106537
|   |   |   |   |   |   |   |   |   |   |   |   |   |   height <= 49
|   |   |   |   |   |   |   |   |   |   |   |   |   |   |   no of interior contours <= 10: 0 (16.01)
|   |   |   |   |   |   |   |   |   |   |   |   |   |   |   no of interior contours > 10: 1 (79.17/0.51)
|   |   |   |   |   |   |   |   |   |   |   |   |   |   height > 49: 0 (16.52)
|   |   |   |   |   |   |   |   |   |   |   |   |   slant > 0.106537: 0 (197.79/0.13)
|   |   |   |   |   |   |   |   |   |   |   |   no negative slope components > 0.031203
|   |   |   |   |   |   |   |   |   |   |   |   |   no of black pixels <= 4056
|   |   |   |   |   |   |   |   |   |   |   |   |   |   slant <= 0.107961
|   |   |   |   |   |   |   |   |   |   |   |   |   |   |   entropy <= 0.121798: 0 (26.49/0.13)
|   |   |   |   |   |   |   |   |   |   |   |   |   |   |   entropy > 0.121798: 1 (15.88)
|   |   |   |   |   |   |   |   |   |   |   |   |   |   slant > 0.107961
|   |   |   |   |   |   |   |   |   |   |   |   |   |   |   height <= 7: 0 (43.25/9.45)
|   |   |   |   |   |   |   |   |   |   |   |   |   |   |   height > 7
|   |   |   |   |   |   |   |   |   |   |   |   |   |   |   |   no vertical slope components <= 0.052226
|   |   |   |   |   |   |   |   |   |   |   |   |   |   |   |   |   no of black pixels <= 1342
|   |   |   |   |   |   |   |   |   |   |   |   |   |   |   |   |   |   no of interior contours <= 11: 1 (25.97/0.77)
|   |   |   |   |   |   |   |   |   |   |   |   |   |   |   |   |   |   no of interior contours > 11: 0 (2.44/0.13)
|   |   |   |   |   |   |   |   |   |   |   |   |   |   |   |   |   no of black pixels > 1342: 1 (252.35/1.67)
|   |   |   |   |   |   |   |   |   |   |   |   |   |   |   |   no vertical slope components > 0.052226
|   |   |   |   |   |   |   |   |   |   |   |   |   |   |   |   |   no of interior contours <= 16: 0 (9.71)
|   |   |   |   |   |   |   |   |   |   |   |   |   |   |   |   |   no of interior contours > 16: 1 (9.45)
|   |   |   |   |   |   |   |   |   |   |   |   |   no of black pixels > 4056
|   |   |   |   |   |   |   |   |   |   |   |   |   |   gray level threshold <= 21: 0 (37.93/0.13)
|   |   |   |   |   |   |   |   |   |   |   |   |   |   gray level threshold > 21: 1 (9.96/0.13)
|   |   |   |   |   |   |   |   |   |   no vertical slope components > 0.056261: 0 (54.19/0.26)
|   |   |   |   |   |   |   |   no vertical slope components > 0.06144
|   |   |   |   |   |   |   |   |   entropy <= 0.136624
|   |   |   |   |   |   |   |   |   |   no of black pixels <= 2731
|   |   |   |   |   |   |   |   |   |   |   no horizontal slope components <= 0.027531: 1 (93.35)
|   |   |   |   |   |   |   |   |   |   |   no horizontal slope components > 0.027531
|   |   |   |   |   |   |   |   |   |   |   |   entropy <= 0.107833
|   |   |   |   |   |   |   |   |   |   |   |   |   no positive slope components <= 0.025929
|   |   |   |   |   |   |   |   |   |   |   |   |   |   entropy <= 0.018152: 0 (29.12)
|   |   |   |   |   |   |   |   |   |   |   |   |   |   entropy > 0.018152
|   |   |   |   |   |   |   |   |   |   |   |   |   |   |   height <= 59
|   |   |   |   |   |   |   |   |   |   |   |   |   |   |   |   no negative slope components <= 0.004574: 1 (30.99)
|   |   |   |   |   |   |   |   |   |   |   |   |   |   |   |   no negative slope components > 0.004574: 0 (57.72/0.39)
|   |   |   |   |   |   |   |   |   |   |   |   |   |   |   height > 59
|   |   |   |   |   |   |   |   |   |   |   |   |   |   |   |   no of exterior contours <= 7: 1 (117.96/0.51)
|   |   |   |   |   |   |   |   |   |   |   |   |   |   |   |   no of exterior contours > 7: 0 (10.09/0.26)
|   |   |   |   |   |   |   |   |   |   |   |   |   no positive slope components > 0.025929: 0 (98.23/0.13)
|   |   |   |   |   |   |   |   |   |   |   |   entropy > 0.107833: 1 (79.26/0.26)
|   |   |   |   |   |   |   |   |   |   no of black pixels > 2731: 1 (283.98/2.18)
|   |   |   |   |   |   |   |   |   entropy > 0.136624: 0 (62.92/0.9)
|   |   |   |   |   |   |   no of exterior contours > 23
|   |   |   |   |   |   |   |   no negative slope components <= 0.121607: 0 (323.48/0.13)
